tree
version=v3
num_class=1
num_tree_per_iteration=1
label_index=0
max_feature_idx=35
objective=binary sigmoid:1
feature_names=Column_0 Column_1 Column_2 Column_3 Column_4 Column_5 Column_6 Column_7 Column_8 Column_9 Column_10 Column_11 Column_12 Column_13 Column_14 Column_15 Column_16 Column_17 Column_18 Column_19 Column_20 Column_21 Column_22 Column_23 Column_24 Column_25 Column_26 Column_27 Column_28 Column_29 Column_30 Column_31 Column_32 Column_33 Column_34 Column_35
feature_infos=[1:6] [1:57] [0:6] [33:9991] [0:1] [1:43] [95:188] [1:109] [1:44] [1:44] [0:194] [0:193] [95:190] [0:1] [0:1] [0:1] [0:1] [0:1] [0:1] [17:70] [0:1] [0:20] [0:26] [0:45] [0:26] [0:18.875] [0:12] [0:19] [0:23] [0:33] [0:20] [0:18.571428569999998] [0:12] [7.5999999999999996:16.199999999999999] [-0.80000000000000004:3.7000000000000002] [-4.0599999999999996:3.5099999999999998]
tree_sizes=6514 6694 6739 6702 6724 6722 6732 6695 6691 6697 6709 6738 6706 6703 6735 6716 6733 6705 6730 6719 6730 6701 6736 6711 6749 6728 6736 6702 6744 6722 6709 6728 6739 6721 6740 6698 6715 6717 6715 6702 6735 6714 6703 6718 6718 6725 6721 6732 6715 6727 6706 6718 6719 6717 6706 6733 6738 6721 6729 6732 6747 6727 6744 6766 6724 6748 6721 6727 6739

Tree=0
num_leaves=63
num_cat=0
split_feature=30 16 30 22 16 1 31 29 16 18 24 27 3 30 12 33 6 30 3 15 27 31 3 23 35 3 9 24 30 12 25 12 11 3 19 19 19 33 30 3 26 17 6 35 29 34 9 31 31 6 3 11 1 21 3 3 25 19 1 12 6 6
split_gain=1031.1 162.123 83.7104 110.491 54.2633 19.656 18.3279 16.6827 16.1909 13.0246 12.3428 23.6956 10.8792 9.97686 9.61814 9.56349 9.50687 9.23801 8.98365 8.43418 10.135 8.22994 9.17888 6.94565 6.86109 6.72516 6.34048 9.39652 11.5853 7.77866 6.18864 6.15411 6.0344 6.43567 5.89053 5.78591 5.67674 5.73465 10.7 5.50288 5.00287 4.72843 4.2875 4.16543 4.12258 7.78407 4.17575 3.66859 3.39181 3.1954 3.10578 3.072 3.7593 8.82975 3.0329 3.02588 5.62939 5.42422 4.56402 2.87083 2.80505 2.46482
threshold=3.5000000000000004 1.0000000180025095e-35 1.5000000000000002 1.0000000180025095e-35 1.0000000180025095e-35 15.500000000000002 13.243650790000002 9.5000000000000018 1.0000000180025095e-35 1.0000000180025095e-35 5.5000000000000009 2.5000000000000004 9246.0000000000018 1.0000000180025095e-35 136.05000000000004 10.950000000000001 158.50000000000003 5.5000000000000009 9124.5000000000018 1.0000000180025095e-35 1.0000000180025095e-35 11.918831170000002 9613.0000000000018 10.500000000000002 0.55500000000000016 9922.0000000000018 37.500000000000007 4.5000000000000009 2.5000000000000004 125.35000000000001 12.330952380000001 129.35000000000005 8.5000000000000018 9246.0000000000018 24.500000000000004 21.500000000000004 19.500000000000004 9.1500000000000021 2.5000000000000004 9528.0000000000018 1.0000000180025095e-35 1.0000000180025095e-35 134.50000000000003 1.9050000000000002 5.5000000000000009 -0.54999999999999993 28.000000000000004 11.980000000000002 11.658333335000002 132.50000000000003 9377.0000000000018 3.5000000000000004 42.500000000000007 1.5000000000000002 9124.5000000000018 9922.0000000000018 12.398333335000002 19.500000000000004 12.500000000000002 128.45000000000002 137.50000000000003 139.15000000000003
decision_type=2 2 2 2 2 2 2 2 2 2 2 2 2 2 2 2 2 2 2 2 2 2 2 2 2 2 2 2 2 2 2 2 2 2 2 2 2 2 2 2 2 2 2 2 2 2 2 2 2 2 2 2 2 2 2 2 2 2 2 2 2 2
left_child=2 6 3 8 54 35 9 17 -1 60 11 12 -9 44 15 -10 -16 19 -15 20 50 22 34 31 -21 30 27 28 -7 48 -25 -14 33 41 61 36 37 -6 -39 -28 -19 -30 -20 -8 -5 46 -46 -43 -29 -17 -3 52 53 -23 -4 56 57 -52 -59 -40 -2 -12
right_child=1 7 4 13 5 26 43 10 14 -11 21 -13 23 18 16 49 -18 40 42 24 -22 51 -24 25 -26 -27 39 29 32 -31 -32 -33 -34 -35 -36 -37 -38 38 59 -41 -42 47 -44 -45 45 -47 -48 -49 -50 -51 55 -53 -54 -55 -56 -57 -58 58 -60 -61 -62 -63
leaf_value=0.60754023184474071 0.59435183790938151 0.79313150088407802 0.63078013829349378 0.5818588794070132 0.79167179832332346 0.61313850890425814 0.68075406299972885 0.78256784636690313 0.74291674982943579 0.73670048114646502 0.80507943665914272 0.61988643214564076 0.79368294407369644 0.69711266479702005 0.78284237795583289 0.59994257012110985 0.68351684908104904 0.79866280680687185 0.59424432382838654 0.66481491253057312 0.70377728034406473 0.7930831286744624 0.67686889507287207 0.5978704805601196 0.77251802927215329 0.75949346631735759 0.76709112804098845 0.80507943665914272 0.75949346631735759 0.64552854046289487 0.71390749597557246 0.69111451080468 0.75248024011092907 0.61737249995767463 0.71644004988344945 0.68234797804664438 0.80507943665914272 0.63413204787744859 0.78879873296564795 0.66832152563378744 0.741765588962219 0.62273555529200231 0.66481491253057312 0.77001330562700032 0.71390749597557246 0.59543272813542514 0.61859137617002191 0.70739521449817466 0.72367591819166932 0.67686889507287207 0.77399809324428914 0.79477105140597515 0.80507943665914272 0.68351684908104915 0.57714958495021718 0.79596224259078563 0.78435854104924041 0.64552854046289487 0.73995662188516398 0.71390749597557246 0.64418777662931292 0.74809697373191131
leaf_weight=3.2904859632253673 11.626383736729627 54.402701258659363 3.7292174249887458 53.086506873369217 3.729217424988752 8.3358977735042608 2.4130230396985999 17.768624201416973 4.8260460793972033 2.1936573088169089 6.8003376573324221 3.5098516941070548 4.3873146176338178 4.1679488867521277 8.9939949661493284 2.1936573088169098 3.2904859632253638 179.22180213034153 8.7746292352676374 2.8517545014619818 3.9485831558704367 4.1679488867521268 3.5098516941070548 2.4130230396986008 3.0711202323436737 2.1936573088169098 3.9485831558704367 2.1936573088169089 2.193657308816908 2.1936573088169098 2.1936573088169098 2.1936573088169098 2.8517545014619836 3.7292174249887466 3.9485831558704367 2.8517545014619818 4.8260460793972006 2.6323887705802917 3.0711202323436737 2.1936573088169098 3.9485831558704367 2.1936573088169098 2.8517545014619818 2.8517545014619827 2.1936573088169089 41.021391674876213 2.4130230396986008 3.0711202323436737 3.0711202323436737 3.5098516941070557 4.8260460793972033 43.653780445456505 3.9485831558704376 3.2904859632253647 8.9939949661493284 10.968286544084547 14.478138238191603 2.1936573088169098 3.0711202323436737 2.1936573088169098 3.7292174249887458 2.6323887705802917
leaf_count=15 53 248 17 242 17 38 11 81 22 10 31 16 20 19 41 10 15 817 40 13 18 19 16 11 14 10 18 10 10 10 10 10 13 17 18 13 22 12 14 10 18 10 13 13 10 187 11 14 14 16 22 199 18 15 41 50 66 10 14 10 17 12
internal_value=0.731008 0.776831 0.640423 0.618397 0.685968 0.707395 0.647282 0.784417 0.711226 0.622736 0.76756 0.743048 0.756925 0.597235 0.726181 0.691115 0.756237 0.790768 0.634132 0.778529 0.78218 0.779368 0.748837 0.722875 0.720661 0.687438 0.685555 0.676031 0.65983 0.724634 0.653126 0.759493 0.687553 0.671003 0.767714 0.748097 0.759493 0.740571 0.71644 0.731816 0.797436 0.697818 0.611554 0.729103 0.591332 0.602353 0.66398 0.67212 0.757594 0.647282 0.785622 0.788734 0.76563 0.744745 0.592869 0.774126 0.764378 0.735709 0.700612 0.757594 0.606455 0.789177
internal_weight=0 412.408 208.617 140.613 68.0034 55.2802 22.814 389.594 26.1045 17.5493 106.612 34.6598 31.1499 114.509 22.814 10.5296 12.2845 282.982 15.7943 99.8114 93.8885 71.952 16.8912 13.3813 5.92287 6.80034 35.976 29.8337 22.3753 7.45843 4.60668 6.58097 14.0394 11.1877 13.3813 19.3042 16.4524 11.6264 7.89717 6.14224 183.17 7.45843 11.6264 5.26478 98.7146 45.6281 4.60668 5.26478 5.26478 5.70351 89.9399 55.0608 11.407 7.45843 12.7232 35.5372 24.569 10.0908 5.26478 5.26478 15.3556 9.43273
internal_count=2831 1880 951 641 310 252 104 1776 119 80 486 158 142 522 104 48 56 1290 72 455 428 328 77 61 27 31 164 136 102 34 21 30 64 51 61 88 75 53 36 28 835 34 53 24 450 208 21 24 24 26 410 251 52 34 58 162 112 46 24 24 70 43
is_linear=0
shrinkage=1


Tree=1
num_leaves=63
num_cat=0
split_feature=30 16 30 3 16 19 29 31 16 24 27 1 18 6 3 30 12 33 30 6 31 3 27 3 24 23 3 6 12 19 25 3 12 26 35 31 12 33 31 32 3 35 12 19 2 1 6 25 10 12 29 34 9 9 1 25 6 3 6 1 23 6
split_gain=917.232 147.235 69.5874 88.7306 45.7288 17.677 15.8866 15.5028 13.2569 11.5279 20.8716 11.3175 10.9012 10.1679 10.0585 8.88904 8.55018 8.90999 7.95957 7.86795 7.77112 8.29148 7.7674 7.46252 6.87334 6.21967 5.88032 5.67485 5.66268 5.4793 5.17757 5.09035 4.87748 4.76742 4.75075 7.44134 4.60269 5.00311 4.21525 4.0362 3.94747 3.74352 3.59915 10.1631 5.62049 3.53828 3.48452 3.36835 3.50821 3.34443 3.32746 6.25986 3.5272 3.12091 2.6564 2.52484 2.46712 2.41726 2.35369 2.32943 4.13366 2.26292
threshold=3.5000000000000004 1.0000000180025095e-35 1.5000000000000002 4092.5000000000005 1.0000000180025095e-35 22.500000000000004 9.5000000000000018 13.243650790000002 1.0000000180025095e-35 5.5000000000000009 2.5000000000000004 15.500000000000002 1.0000000180025095e-35 132.50000000000003 9246.0000000000018 5.5000000000000009 136.05000000000004 10.950000000000001 1.0000000180025095e-35 158.50000000000003 11.918831170000002 9613.0000000000018 1.0000000180025095e-35 9124.5000000000018 2.5000000000000004 10.500000000000002 9922.0000000000018 117.50000000000001 129.35000000000005 24.500000000000004 12.330952380000001 9377.0000000000018 113.65000000000002 1.0000000180025095e-35 -1.0000000180025095e-35 11.658333335000002 127.25000000000001 10.100000000000003 12.851648355000002 1.0000000180025095e-35 9922.0000000000018 1.9050000000000002 122.05000000000001 20.500000000000004 2.5000000000000004 1.5000000000000002 134.50000000000003 12.666190480000003 6.5000000000000009 121.55000000000001 5.5000000000000009 -0.54999999999999993 28.000000000000004 36.500000000000007 16.500000000000004 11.602500000000001 139.15000000000003 9124.5000000000018 139.15000000000003 42.500000000000007 8.5000000000000018 137.50000000000003
decision_type=2 2 2 2 2 2 2 2 2 2 2 2 2 2 2 2 2 2 2 2 2 2 2 2 2 2 2 2 2 2 2 2 2 2 2 2 2 2 2 2 2 2 2 2 2 2 2 2 2 2 2 2 2 2 2 2 2 2 2 2 2 2
left_child=2 7 3 8 57 11 15 12 -1 10 14 36 61 24 -8 22 17 -10 50 54 21 29 31 -20 -7 28 30 -13 -16 58 -27 -3 -29 -17 35 -34 -6 -38 40 56 42 -9 45 44 -44 -33 -25 48 -36 -19 -5 52 -52 -26 -18 -22 -15 -4 -11 -53 -61 -2
right_child=1 6 4 18 5 13 9 41 16 20 -12 27 -14 39 25 33 19 49 23 -21 55 -23 -24 46 53 26 -28 32 -30 -31 -32 38 34 -35 47 -37 37 -39 -40 -41 -42 -43 43 -45 -46 -47 -48 -49 -50 -51 51 59 -54 -55 -56 -57 -58 -59 -60 60 -62 -63
leaf_value=-0.11259150456240126 -0.12412573297525076 0.058465575003364779 -0.092056709311763726 -0.13497612093394101 0.045954100432266054 -0.10148622070982537 0.04992664911628801 -0.046913749508073935 0.011361913333278344 0.072352618883432362 -0.10171657748045913 -0.10387387052409687 0.0054187067825321802 -0.14648499182324784 0.060949562913796843 0.065919554730626786 0.064560983374602407 -0.12425159207282346 -0.031819233684388042 -0.044375950572438955 0.014582193450043138 -0.050474757585636715 -0.020544536283213219 -0.12421940761939305 -0.036828448683598781 -0.12105657158371599 0.027344200337932389 0.050781144373051194 -0.037373038914306093 -0.013768216308896334 -0.016147285719282728 -0.0068950985425220573 -0.044386896814100525 0.010259287256088359 -0.088396949431540001 0.074275638068179495 0.033026594087386334 -0.052952154953597799 0.05570329014674609 -0.047480078876996228 0.05617820877696561 0.037590330377893354 0.050985529641966842 -0.10514869110506327 -0.041071529242055274 0.062486660942910215 -0.061466158350059023 0.0064071058989365525 -0.021206954419189572 -0.048890902609493352 -0.016147285719282738 -0.12730079079621312 -0.10286089536171249 0.031851927412448237 0.0071598257735347969 0.0588661269434042 -0.08103262834611949 -0.13904773626075545 0.016335297525417302 -0.049750378641575353 -0.1406907900171577 -0.080081850380560454
leaf_weight=3.4241893887519863 12.145443454384809 56.246053636074066 3.853780820965766 55.654956102371216 11.020575374364855 2.2520161420106906 17.440689951181415 2.4544795304536811 4.8058208823204058 6.6183787584304827 3.6390743255615225 2.2310149520635632 2.1892750263214102 4.0454498231410962 4.2884379625320417 174.85296341776848 6.0282642245292646 2.4901186376810074 4.2166300266981152 3.3439819514751425 3.4379398375749579 3.5746898651123038 4.201871544122695 9.1666573286056501 3.1187946647405624 2.5181857049465179 2.1715070307254791 2.1800261139869717 2.223726361989975 3.9685857295989981 2.2066864371299744 3.0773096829652848 2.9127006977796581 3.9336424469947806 5.1703255623578972 2.4179618358612061 3.6977501660585395 3.1192888617515564 14.625161215662954 2.4458331167697906 6.0187528431415549 2.812147319316864 4.5335604548454267 2.2203231602907181 2.6141205132007599 4.5612059235572815 2.9157792776823035 2.2035343647003165 3.1121254116296768 3.6015395969152451 2.2066864371299735 37.341301649808884 2.5028360933065414 3.5219904780387878 3.0279247015714645 50.476344928145409 2.2352034449577332 9.4416717141866666 2.6165215373039246 2.7490528821945182 2.2908774018287659 3.8378804475069037
leaf_count=15 53 262 17 242 51 10 81 11 22 31 16 10 10 18 20 817 28 11 19 15 16 16 19 40 14 11 10 10 10 18 10 14 13 18 23 11 17 14 68 11 28 13 21 10 12 21 13 10 14 16 10 163 11 16 14 235 10 41 12 12 10 17
internal_value=0 0.0443125 -0.083488 -0.103068 -0.0421129 -0.0222205 0.0517749 -0.0773269 -0.0207298 0.0352325 0.0115336 -0.00305422 -0.0992177 -0.0636278 0.024893 0.0580589 -0.00722831 -0.0395395 -0.12155 0.0211673 0.0467943 0.0170773 0.0459644 -0.0890891 -0.0260016 -0.00766868 -0.0407601 -0.0286563 0.0273751 0.0353663 -0.0720601 0.0489407 -0.0193318 0.0646949 -0.0289955 0.00943783 0.0259783 -0.00631491 0.0347115 -0.101971 0.021378 -0.00179228 0.00906195 -0.0117084 0.0173175 0.034535 -0.109076 -0.0485335 -0.0631504 -0.0796965 -0.126699 -0.116917 -0.0622305 -0.000403293 0.045369 0.0560423 -0.123191 -0.125427 0.0564812 -0.122994 -0.0910869 -0.11355
internal_weight=0 405.505 214.747 145.767 68.98 55.6846 382.066 23.4392 26.7218 105.181 34.4883 38.0653 18.1726 17.6193 30.8492 276.885 23.2976 10.8975 119.045 12.4002 70.6925 16.7782 98.0984 16.2991 8.8928 13.4085 6.89638 20.2277 6.51216 13.2035 4.72487 93.8965 17.9967 178.787 15.8166 5.33066 17.8376 6.81704 37.6504 8.72649 23.0253 5.26663 17.0065 9.368 7.14768 7.63852 12.0824 10.486 8.28245 6.09166 102.746 47.0908 4.70952 6.64079 9.05619 53.9143 6.28065 13.2955 9.2349 42.3812 5.03993 15.9833
internal_count=2831 1880 951 641 310 252 1776 104 121 486 158 173 80 79 142 1290 106 49 520 57 328 77 455 72 40 61 31 91 30 61 21 436 81 835 71 24 82 31 174 39 106 24 78 43 33 35 53 47 37 27 448 206 21 30 42 251 28 58 43 185 22 70
is_linear=0
shrinkage=0.05


Tree=2
num_leaves=63
num_cat=0
split_feature=30 16 30 22 16 19 29 31 16 24 28 1 6 30 15 27 12 6 31 33 19 30 28 35 24 6 12 35 12 6 26 12 12 33 35 31 25 24 31 35 32 33 11 11 25 11 31 1 21 30 19 29 34 12 10 25 17 13 34 19 5 25
split_gain=821.064 134.206 59.1165 77.4126 39.2437 15.5182 15.1445 13.3139 12.1003 10.7594 24.2317 10.2044 8.6536 8.58358 7.92063 8.84359 7.78011 7.95506 7.33621 7.25721 7.17469 6.66143 6.09949 6.02795 5.96709 5.79562 7.96169 5.33421 6.76865 4.88091 4.55655 4.41234 4.25678 4.64584 4.19861 6.82241 4.14594 3.97322 3.76919 3.36973 3.3656 3.27576 3.50732 3.22414 6.0088 3.0197 3.84298 6.54298 8.7556 2.88194 2.87245 2.68859 5.283 2.52757 2.48065 2.24973 2.18853 2.09112 3.91295 4.65877 2.99642 2.65462
threshold=3.5000000000000004 1.0000000180025095e-35 1.5000000000000002 1.0000000180025095e-35 1.0000000180025095e-35 22.500000000000004 9.5000000000000018 13.243650790000002 1.0000000180025095e-35 5.5000000000000009 6.5000000000000009 15.500000000000002 132.50000000000003 5.5000000000000009 1.0000000180025095e-35 1.0000000180025095e-35 136.05000000000004 158.50000000000003 11.918831170000002 10.950000000000001 24.500000000000004 1.0000000180025095e-35 12.500000000000002 0.55500000000000016 2.5000000000000004 120.50000000000001 114.35000000000001 1.2650000000000003 120.95000000000002 117.50000000000001 1.0000000180025095e-35 113.65000000000002 127.25000000000001 9.1500000000000021 -1.0000000180025095e-35 11.658333335000002 12.398333335000002 5.5000000000000009 12.666190480000003 1.9050000000000002 1.0000000180025095e-35 10.100000000000003 6.5000000000000009 8.5000000000000018 12.398333335000002 3.5000000000000004 13.371250000000002 42.500000000000007 1.5000000000000002 5.5000000000000009 20.500000000000004 5.5000000000000009 -0.54999999999999993 121.55000000000001 8.5000000000000018 11.717857140000001 1.0000000180025095e-35 1.0000000180025095e-35 1.0000000000000002 22.500000000000004 2.5000000000000004 13.991666665000002
decision_type=2 2 2 2 2 2 2 2 2 2 2 2 2 2 2 2 2 2 2 2 2 2 2 2 2 2 2 2 2 2 2 2 2 2 2 2 2 2 2 2 2 2 2 2 2 2 2 2 2 2 2 2 2 2 2 2 2 2 2 2 2 2
left_child=2 7 3 8 -4 11 13 37 -1 10 25 32 24 14 15 57 19 -18 20 -10 49 51 -22 -16 -7 26 -8 54 -29 -13 -15 -31 -6 -34 35 -33 -12 50 55 -9 -14 42 -27 44 -36 46 47 48 -20 -11 -2 -5 -53 -21 56 -39 -23 60 61 -60 -3 -59
right_child=1 6 4 21 5 12 9 39 16 18 36 29 40 30 23 -17 17 -19 45 53 22 27 -24 -25 -26 41 -28 28 -30 31 -32 34 33 -35 43 -37 -38 38 -40 -41 -42 -43 -44 -45 -46 -47 -48 -49 -50 -51 -52 52 -54 -55 -56 -57 -58 58 59 -61 -62 -63
leaf_value=-0.10368727050726197 -0.080435797217538171 0.065499803763165346 -0.11528442321057784 -0.12382955728384754 0.044439052627562488 -0.093532954842918681 0.049928281050433537 -0.043892081108738483 0.010838938311681191 0.0086794638761678051 -0.10768454373934498 -0.095539826463004657 -0.11282604629604581 0.06431164346226545 -0.063249163121951626 -0.024423149185335294 0.048768694418319367 -0.041548665678754079 0.047475156222885707 -0.11228436373227904 0.013241009798993711 -0.060216386355172374 -0.086666684526667717 0.038211624213229961 -0.0003734404914215005 -0.041230341063620696 -0.077182105792663352 -0.099306967647720151 0.009250720295757138 0.049175511565539898 0.0097830226213200949 -0.04157545057482618 0.051027749165209559 -0.035828296211112005 -0.092047062041065039 0.072539371154889273 -0.02522022356307731 -0.050660418570717562 -0.0098548180919803881 0.036231244796252109 -0.044407467537338097 0.052437850485263872 0.041111968540493558 0.0080708517319426024 -0.0045795668767459477 0.060585732794498408 0.071826895086879547 0.071074789004405101 -0.092302176441496409 0.063485454576422448 -0.13167493139620004 -0.05803962789693079 -0.11330083750742542 -0.045742993014312519 -0.13307172412911386 -0.11732970944693691 -0.11809575263485572 0.066605289148104305 0.038534098083752452 -0.035352585012794618 0.018463690363129896 0.012172036413362109
leaf_weight=3.5293981432914761 4.6749385297298485 32.635732367634773 13.729449436068533 57.577238887548447 10.831345394253733 2.319464176893236 2.3143367320299175 2.4912887662649146 4.7863264083862322 3.8774227499961871 3.9912358075380316 2.3023680150508907 6.5080081224441511 170.37722262740135 2.8904586285352698 4.0131533145904532 8.6711016595363599 3.3916716277599326 2.0960868895053846 2.3410928249359131 4.0201348364353171 3.9457388669252413 2.464058980345726 2.9661481231451035 6.6384976804256439 2.1725785583257702 2.6339997947216034 2.7948113083839408 2.9531025439500809 2.1396804302930859 3.9192615151405326 2.9530949592590359 2.3458441197872153 4.4794918745756149 5.2889786213636345 2.3536738306283951 2.4657869637012482 2.3137497454881659 2.2844766676425934 2.7727696895599365 2.4833002686500549 17.486782863736153 3.1950296014547348 2.2279966026544562 3.1228707432746887 41.739023134112358 3.8034000992774963 2.7117236703634262 2.4067326486110687 6.2894699424505234 6.5920519232749939 4.793748512864112 44.224140584468842 3.6554635912179947 4.2192269861698151 2.7926517724990845 2.7866866588592529 19.806818246841434 25.406474679708484 2.3290059566497794 3.7778962254524222 2.5254076272249213
leaf_count=15 20 155 58 242 51 10 11 11 22 18 17 10 28 817 13 18 41 15 10 10 18 17 11 14 30 10 12 12 13 10 18 13 11 20 23 11 11 10 10 13 11 82 15 10 14 199 18 13 11 30 28 21 187 16 18 12 12 94 120 11 18 12
internal_value=0 0.0429029 -0.0775563 -0.0952711 -0.0395296 -0.0209551 0.0502407 -0.0719138 -0.017524 0.0339905 0.0110631 -0.0028755 -0.0592768 0.0564651 0.0444889 0.0481359 -0.00421272 0.0233743 0.0453074 -0.0350742 0.0163727 -0.111903 -0.0247249 -0.0118631 -0.024495 0.0313279 -0.0177326 -0.0825399 -0.0435333 -0.0269731 0.0630855 -0.0182446 0.0249506 -0.00597618 -0.0272909 0.00903709 -0.0761933 -0.091727 -0.0632387 -0.00168823 -0.0939296 0.0419502 0.00778332 -0.0454099 -0.059575 0.0544398 0.0311571 0.00971657 -0.0272351 0.0425837 -0.110415 -0.116503 -0.107897 -0.0717212 -0.103012 -0.0871213 -0.0841738 0.051503 0.0448724 0.0323297 0.0606198 0.0604498
internal_weight=0 398.237 219.394 149.67 69.7241 55.9946 374.315 23.9219 26.3751 103.668 34.2598 38.0453 17.9493 270.648 96.3511 90.4945 22.8457 12.0628 69.4081 10.7829 16.6511 123.295 6.48419 5.85661 8.95796 27.8027 4.94834 16.6996 5.74791 20.3887 174.296 18.0863 17.6567 6.82534 15.9466 5.30677 6.45702 18.6579 7.39088 5.26406 8.99131 22.8544 5.36761 10.6398 8.41185 52.757 11.0179 7.21454 4.50282 10.1669 11.267 106.595 49.0179 5.99656 10.9517 5.1064 6.73243 86.4813 50.0677 27.7355 36.4136 22.3322
internal_count=2831 1880 951 641 310 252 1776 104 119 486 158 173 79 1290 455 428 104 56 328 48 77 522 29 27 40 130 23 72 25 91 835 81 82 31 71 24 28 80 32 24 39 107 25 47 37 251 52 34 21 48 48 450 208 26 47 22 29 410 237 131 173 106
is_linear=0
shrinkage=0.05


Tree=3
num_leaves=63
num_cat=0
split_feature=30 16 16 30 22 29 19 31 18 30 3 31 10 1 12 6 29 34 15 33 6 25 3 30 33 6 3 35 19 33 30 27 3 26 34 19 19 17 9 9 19 25 30 25 25 34 3 25 35 8 6 1 9 10 30 35 8 35 3 9 6 12
split_gain=738.683 122.654 51.4698 50.7082 63.4776 14.4454 13.8992 11.5545 8.71707 8.32387 8.04916 12.2972 7.51959 7.39771 7.00724 7.2776 6.89145 6.83818 6.8036 6.38756 6.16047 6.58371 6.04121 5.60343 6.04949 6.50551 5.2766 5.37516 5.21932 4.9346 9.09445 4.71519 4.66645 4.36634 4.26708 7.44814 8.12154 8.75199 4.25169 6.50916 8.40464 4.20843 4.04489 3.71165 3.26843 3.09614 3.50951 3.04257 3.03738 3.03551 3.02642 3.4856 2.75787 3.79172 2.75478 7.25602 2.72093 3.09084 2.7235 2.62808 2.43119 2.25187
threshold=3.5000000000000004 1.0000000180025095e-35 1.0000000180025095e-35 1.5000000000000002 1.0000000180025095e-35 9.5000000000000018 21.500000000000004 13.243650790000002 1.0000000180025095e-35 5.5000000000000009 9613.0000000000018 11.980000000000002 1.0000000180025095e-35 15.500000000000002 136.05000000000004 158.50000000000003 7.5000000000000009 -0.54999999999999993 1.0000000180025095e-35 10.950000000000001 133.05000000000004 11.717857140000001 9192.5000000000018 2.5000000000000004 9.1500000000000021 130.50000000000003 9721.5000000000018 -1.3099999999999998 19.500000000000004 9.1500000000000021 2.5000000000000004 1.0000000180025095e-35 9102.0000000000018 1.0000000180025095e-35 0.40000000000000008 23.500000000000004 26.500000000000004 1.0000000180025095e-35 37.500000000000007 34.500000000000007 18.500000000000004 11.991507935000003 5.5000000000000009 12.330952380000001 12.074175825000003 2.0000000000000004 9246.0000000000018 12.398333335000002 1.9050000000000002 20.500000000000004 120.50000000000001 15.500000000000002 5.5000000000000009 3.5000000000000004 1.0000000180025095e-35 1.2650000000000003 2.5000000000000004 1.2650000000000003 9102.0000000000018 30.500000000000004 132.50000000000003 128.45000000000002
decision_type=2 2 2 2 2 2 2 2 2 2 2 2 2 2 2 2 2 2 2 2 2 2 2 2 2 2 2 2 2 2 2 2 2 2 2 2 2 2 2 2 2 2 2 2 2 2 2 2 2 2 2 2 2 2 2 2 2 2 2 2 2 2
left_child=2 7 -1 4 14 9 13 45 10 12 34 20 -3 28 19 -16 -6 -18 31 -4 21 -12 -20 32 -25 41 27 -15 29 -5 -31 -14 -8 -11 52 50 37 -37 39 40 -29 -26 44 -27 -38 46 59 -48 -9 -13 -36 56 53 -7 -19 -56 -52 -58 -59 -2 -21 -32
right_child=1 5 3 6 16 8 23 48 -10 33 11 49 18 26 15 -17 17 54 22 60 -22 -23 -24 24 25 43 -28 38 -30 30 61 -33 -34 -35 35 36 42 -39 -40 -41 -42 -43 -44 -45 -46 -47 47 -49 -50 -51 51 -53 -54 -55 55 -57 57 58 -60 -61 -62 -63
leaf_value=-0.11355067795225814 -0.018542871351928787 -0.053904441592006358 0.010338601991799362 0.0565606398262734 -0.10765430411875075 0.070755453015218114 -0.019853756184125521 -0.041143593002729295 0.060059152263484128 0.062814753380261171 -0.14243765613264367 0.071044935359869429 0.050912724433540849 0.045331001741556146 0.047272586342500443 -0.038969838309651776 -0.014499250602838819 -0.099662659548895527 0.051207319510440233 -0.10632879046262894 0.0065253029038767375 -0.027020689867110731 -0.055331080470776485 0.030056852917567978 0.036295105324883302 -0.12910212595202941 -0.091777007356175291 -0.095778513372766369 0.070720178716800697 -0.088595621843687189 0.053527089595328731 -0.0075633539507352007 -0.098713843015836814 0.0093276504084402918 -0.0057118376755472232 0.02423652011443074 -0.05897347047557993 -0.10865965492423257 0.032296710044013681 -0.1148747677752306 0.021704971549311187 -0.056838379221497537 0.044603560381789538 -0.043709632947255529 0.027507080242139867 -0.12549027839072616 -0.1245003551104984 -0.063833938866181536 0.034923480857013869 0.009731216532779979 0.070032355097967805 0.061175114868640613 0.066719582005931019 -0.016289756311954066 -0.099770231272348284 -0.0080566980626042145 0.043562713035394926 0.023184760382752988 -0.055487600187725673 -0.080408559249874278 -0.041645286417788474 -0.013154035216079
leaf_weight=56.889944851398468 3.516616150736815 1.9574476480483998 4.7675531506538409 3.5236077457666379 57.98009966313839 2.2759048640728023 2.53029665350914 2.523948222398757 22.807300537824631 165.83115120232105 2.499103024601939 3.5342018157243711 83.6297936886549 3.3089607805013648 8.502576991915701 3.4341669827699652 3.7211386710405376 15.97953262925148 2.3456403613090506 2.383105605840683 2.8896604925394058 2.4438421428203583 3.0749239176511765 3.3149673491716394 2.6298629790544492 2.6081938147544861 2.3300700038671485 2.2962763905525225 4.5531533211469641 2.7197412550449371 2.9021135270595551 3.5955400466918936 7.2535571604967117 3.905430167913436 3.1860467195510891 2.1023633182048824 2.2179223001003248 3.0162344574928284 2.3973191082477561 2.3190747201442719 4.5166133046150208 2.2513522356748581 7.1985867321491241 2.4849048256874084 2.1532441228628159 3.8321994394063941 4.5597631931304914 3.7800468504428864 2.7337773591279984 4.7072930485010147 2.4505024701356914 15.315732747316359 12.411209240555761 2.7783938944339752 5.7398809939622879 3.45457723736763 3.7099606543779355 2.0836328119039536 2.3304861634969711 3.3537981361150742 3.720815435051918 2.2460183501243591
leaf_count=235 15 9 22 17 239 11 11 11 110 817 11 17 405 15 41 15 16 66 11 10 13 11 14 15 12 11 10 10 22 12 14 16 31 18 15 10 10 14 11 10 20 10 34 11 10 16 19 16 13 22 12 74 60 13 24 15 18 10 11 14 16 10
internal_value=0 0.0415765 -0.072512 -0.0584365 -0.078223 0.0487902 -0.0198103 -0.0672072 0.0328178 0.0549601 0.0249834 -0.00661001 0.0430755 0.000948592 -0.00398749 0.0224609 -0.0977128 -0.0777646 0.0451245 -0.0330275 -0.0514701 -0.0853743 -0.00922873 -0.049602 -0.0284599 -0.047908 -0.0218267 -0.0108423 0.0254717 0.00738603 -0.0146367 0.0485023 -0.0783191 0.0615841 0.0330149 0.0249907 -0.00163441 -0.0540752 -0.0269643 -0.0425214 -0.0178927 -0.00666065 0.021566 -0.0874394 -0.016373 -0.0853239 -0.075204 -0.0970031 -0.00159219 0.0360244 0.0402722 0.045931 0.0540405 0.0229059 -0.0871163 -0.0653113 0.0238521 0.00992253 -0.0183512 -0.0487427 -0.0668992 0.0244356
internal_weight=0 390.752 222.759 165.87 109.683 366.452 56.1861 24.3001 102.112 264.34 79.3043 16.0741 94.6033 33.1129 22.8082 11.9367 86.8752 28.8951 92.6459 10.8715 7.83261 4.94295 5.42056 23.0731 13.2893 9.97431 17.1683 14.8382 15.9446 11.3915 7.86787 87.2253 9.78385 169.737 63.2302 45.7647 16.6884 5.1186 11.5293 9.13196 6.81289 4.88122 11.5698 5.0931 4.37117 19.0424 15.2102 8.33981 5.25773 8.24149 29.0764 25.8903 17.4655 5.0543 25.174 9.19446 10.5746 8.12408 4.41412 6.87041 6.10392 5.14813
internal_count=2831 1880 951 716 464 1776 252 104 486 1290 376 74 455 151 104 56 360 121 446 48 35 22 25 101 59 44 76 66 75 53 36 421 42 835 302 218 78 24 51 40 30 22 54 22 20 80 64 35 24 39 140 125 84 24 105 39 51 39 21 29 26 24
is_linear=0
shrinkage=0.05


Tree=4
num_leaves=63
num_cat=0
split_feature=30 16 30 22 16 27 30 30 19 3 31 16 15 29 25 9 6 12 31 17 3 17 34 31 6 24 24 23 4 25 8 19 29 8 24 29 9 34 33 29 24 13 6 12 23 12 23 24 30 29 9 34 32 8 19 35 12 25 30 35 3 6
split_gain=667.159 112.319 44.9027 58.3228 29.7466 13.8766 24.9116 13.2655 12.3496 11.5838 10.138 9.16011 7.56695 7.43219 8.55035 7.28495 6.64853 6.37358 6.0034 5.88587 5.81351 6.38177 6.20505 5.64547 5.27313 4.8913 4.41399 4.40277 4.35229 5.3403 6.96652 5.18243 4.32975 7.65012 4.17145 3.95445 4.64997 6.3055 4.05191 4.3492 3.78258 3.74467 3.69937 3.68167 3.45246 3.31201 2.9745 3.8717 5.35835 2.82674 2.765 2.73553 2.70675 2.65469 2.37108 2.32843 4.48084 3.69425 2.29243 2.13423 2.04535 2.01546
threshold=3.5000000000000004 1.0000000180025095e-35 1.5000000000000002 1.0000000180025095e-35 1.0000000180025095e-35 2.5000000000000004 6.5000000000000009 5.5000000000000009 22.500000000000004 9377.0000000000018 13.330952380000001 1.0000000180025095e-35 1.0000000180025095e-35 10.500000000000002 12.341666665000002 36.500000000000007 132.50000000000003 132.85000000000005 13.065151515000002 1.0000000180025095e-35 9813.0000000000018 1.0000000180025095e-35 1.0000000000000002 13.668333335000002 158.50000000000003 2.5000000000000004 4.5000000000000009 10.500000000000002 1.0000000180025095e-35 12.163333335000003 1.5000000000000002 19.500000000000004 14.500000000000002 32.000000000000007 3.5000000000000004 5.5000000000000009 1.5000000000000002 -1.0000000180025095e-35 10.950000000000001 8.5000000000000018 5.5000000000000009 1.0000000180025095e-35 133.05000000000004 128.45000000000002 10.500000000000002 125.35000000000001 11.500000000000002 3.5000000000000004 4.5000000000000009 18.500000000000004 36.500000000000007 1.0000000000000002 1.0000000180025095e-35 36.500000000000007 20.500000000000004 1.9050000000000002 118.35000000000001 12.562500000000002 2.5000000000000004 1.9050000000000002 9124.5000000000018 139.15000000000003
decision_type=2 2 2 2 2 2 2 2 2 2 2 2 2 2 2 2 2 2 2 2 2 2 2 2 2 2 2 2 2 2 2 2 2 2 2 2 2 2 2 2 2 2 2 2 2 2 2 2 2 2 2 2 2 2 2 2 2 2 2 2 2 2
left_child=2 10 3 11 60 7 15 9 20 46 40 -1 13 28 -15 -7 25 19 27 -13 21 43 26 35 53 -10 34 -8 -11 30 -30 -32 -29 -34 -23 -5 37 -37 39 -39 54 -24 -42 58 -45 -43 55 -48 -49 -35 -27 -21 61 -19 -2 -3 -57 -58 -6 -38 -4 -18
right_child=1 5 4 23 8 6 18 -9 16 12 -12 17 -14 14 -16 -17 52 24 -20 51 -22 22 41 -25 -26 50 -28 32 29 -31 31 -33 33 49 -36 36 59 38 -40 -41 42 45 -44 44 -46 -47 47 48 -50 -51 -52 -53 -54 -55 -56 56 57 -59 -60 -61 -62 -63
leaf_value=-0.088821083627503905 -0.069624178510416787 0.058971520700085156 -0.069965972129958309 -0.10788443651777849 0.015055599648965318 -0.12366608445533056 -0.039752793750142061 0.059445092045958284 -0.083037095493516774 0.057949589852918905 0.0059855526772897329 -0.091097947112063024 -0.050077960778660384 -0.086388581654743543 0.029286654043978913 -0.017511994678689569 -0.11862815558842332 0.047578718465544435 0.065238567738982872 -0.046474381893657012 -0.075025919296134488 -0.036116270215770414 0.047248119455985504 -0.030424656858709539 -0.036607080288950884 -0.033576295350977559 -0.0034608116322191636 0.054174219143356662 0.071303706244347898 0.037234260413330708 0.012330472757414744 -0.073330167644043556 0.058352129820480485 -0.061379949154674041 -0.1270952290021741 0.0047561545483775997 -0.10210430128929511 0.0010753985706769603 -0.10811278273172463 -0.08370878080239276 -0.087071149940578824 0.015929724848377236 -0.021058903643630601 0.02093101608765964 -0.054522492421945491 -0.05943249183858388 0.059785684524062133 0.042786653312677038 -0.048838295525422376 0.010305649782609056 0.030955150824863192 0.025351009706188539 -0.038078553936009715 -0.012752417198424362 -0.11531966410787386 0.069342248750852584 0.053084895142315791 -0.01830653738886381 0.062698001195827996 -0.071459128705954292 -0.11163868783778891 -0.061659149468356482
leaf_weight=3.6786163598299053 4.8375265151262337 55.676417082548141 4.149578481912612 61.540623173117638 4.2711593955755252 3.2099066376686087 2.6076204031705883 187.01334150135517 2.3991217166185397 12.408989876508711 4.3693783432245246 3.2246987521648425 3.5694098323583594 2.9928885102272025 3.4264271259307861 3.2551803290843964 4.3854020684957487 8.3146276473999006 12.041302010416983 2.3368172943592072 2.5707788169383994 2.6713699251413363 3.8509566932916623 3.0884564071893683 3.4720140695571891 3.1680344045162201 3.1282912492752075 9.1873760372400302 2.0869368910789508 19.648368686437607 3.3629768490791321 3.7174656093120575 4.0974290519952756 3.2861648797988892 2.3845997750759125 2.5919530242681512 41.093164026737213 2.3909384161233866 6.6230666935443878 4.117368683218956 4.0676689743995649 3.4422903656959534 4.4378913640975952 4.6033280193805686 2.2604946196079254 2.5289556235074997 5.052823990583418 3.5256363749504089 2.9149525910615921 2.3648010939359665 3.4870245605707169 3.0635430812835693 2.5543540716171265 2.3355159610509864 6.8709582835435867 5.629817917942999 3.0297652930021286 4.5086291879415512 6.1757997572422028 6.5929580479860297 10.138595536351202 2.4033443629741669
leaf_count=15 20 275 17 249 20 14 12 943 10 61 20 14 16 13 16 15 18 40 60 10 11 12 18 13 15 14 14 45 10 96 16 17 20 15 10 11 168 10 27 17 17 16 19 21 10 11 25 17 14 11 16 14 11 11 28 28 15 22 30 27 41 10
internal_value=0 0.0403128 -0.0681501 -0.0832469 -0.0351077 0.0474003 0.0196609 0.0508876 -0.0187524 0.0387224 -0.0630769 -0.0156182 0.0201394 0.0254 -0.0246448 -0.0702174 -0.0523627 -0.00378007 0.0369626 -0.0376463 -0.00243216 0.00285201 -0.0179877 -0.0972048 0.0169036 -0.0218292 -0.0501423 0.0211582 0.0331927 0.0225316 -0.00898064 -0.0326442 0.0295461 0.00633539 -0.0790256 -0.0988554 -0.0900925 -0.0665126 -0.0805801 -0.0525619 -0.0780051 0.00880485 -0.0526284 0.0245292 -0.00391844 -0.0159879 0.0505686 0.027022 0.00131803 -0.0313812 0.000235988 -0.00572892 -0.0819521 0.0343484 -0.0964399 0.0544996 0.0355919 0.0103865 0.0432198 -0.0978674 -0.0995361 -0.0984601
internal_weight=0 383.198 225.038 154.464 70.5735 358.615 40.0498 318.565 56.2853 131.552 24.5834 26.4258 51.2135 47.6441 6.41932 6.46509 18.3973 22.7472 33.5847 8.62506 37.888 35.3172 18.0065 128.039 14.1222 9.05418 8.18426 21.5434 41.2247 28.8157 9.16738 7.08044 18.9358 9.7484 5.05597 124.95 63.4094 15.7233 13.1314 6.50831 20.214 9.8222 8.50556 17.3108 6.86382 5.97125 80.338 11.4934 6.44059 5.65097 6.65506 5.40036 9.3431 10.6501 11.7085 68.8446 13.1682 7.53839 10.447 47.6861 14.2882 6.78875
internal_count=2831 1880 951 641 310 1776 192 1584 252 641 104 119 245 229 29 29 79 104 163 38 173 162 81 522 66 40 36 103 200 139 43 33 91 46 22 509 260 65 54 27 84 45 36 81 31 27 396 56 31 26 30 24 39 51 48 340 65 37 50 195 58 28
is_linear=0
shrinkage=0.05


Tree=5
num_leaves=63
num_cat=0
split_feature=30 16 16 30 22 27 30 30 1 3 31 11 18 31 15 12 35 6 31 33 21 8 23 30 35 24 33 33 11 3 19 6 30 25 12 3 12 23 28 23 25 25 35 34 12 12 12 23 24 30 31 1 6 23 12 23 35 12 25 6 13 10
split_gain=604.544 103.052 40.1977 39.4649 48.9373 13.1593 22.494 12.8454 11.701 10.9538 8.97008 8.55047 7.93999 7.00519 6.21383 5.84597 6.20754 6.60938 5.72855 5.43708 5.24828 5.60178 7.43105 5.22285 6.78984 5.14323 9.7675 5.23714 4.91501 4.50352 4.13712 5.03961 8.0905 5.21796 4.03542 4.50444 6.64794 4.00211 4.88136 6.14104 3.91642 3.56616 3.55154 3.49406 4.3435 4.97755 3.35391 2.84813 3.63649 4.82934 2.66742 3.19298 2.65771 2.40479 2.35054 2.80885 2.24356 4.26685 3.40545 2.13674 2.1294 2.70574
threshold=3.5000000000000004 1.0000000180025095e-35 1.0000000180025095e-35 1.5000000000000002 1.0000000180025095e-35 2.5000000000000004 6.5000000000000009 5.5000000000000009 15.500000000000002 9377.0000000000018 13.330952380000001 5.5000000000000009 1.0000000180025095e-35 13.752777780000001 1.0000000180025095e-35 136.05000000000004 -1.0000000180025095e-35 142.50000000000003 13.065151515000002 10.950000000000001 1.0000000180025095e-35 13.000000000000002 10.500000000000002 1.0000000180025095e-35 1.2650000000000003 3.5000000000000004 9.1500000000000021 12.550000000000002 3.5000000000000004 9721.5000000000018 20.500000000000004 130.50000000000003 2.5000000000000004 12.246428570000001 138.45000000000002 9813.0000000000018 124.95000000000002 10.500000000000002 13.500000000000002 18.500000000000004 11.651190480000002 11.651190480000002 -1.3099999999999998 -0.54999999999999993 120.55000000000001 133.35000000000005 116.95000000000002 11.500000000000002 3.5000000000000004 4.5000000000000009 10.991666665000002 42.500000000000007 137.50000000000003 19.500000000000004 128.10000000000002 9.5000000000000018 1.9050000000000002 118.35000000000001 12.562500000000002 132.50000000000003 1.0000000180025095e-35 6.5000000000000009
decision_type=2 2 2 2 2 2 2 2 2 2 2 2 2 2 2 2 2 2 2 2 2 2 2 2 2 2 2 2 2 2 2 2 2 2 2 2 2 2 2 2 2 2 2 2 2 2 2 2 2 2 2 2 2 2 2 2 2 2 2 2 2 2
left_child=2 10 -1 4 15 7 11 9 25 47 12 -7 52 14 20 19 17 -17 37 -4 21 28 34 43 54 26 -5 -28 -11 -24 42 32 46 -34 35 41 -37 -8 53 -40 -27 -23 -10 44 -6 -46 -32 56 -49 -50 -33 -52 -2 -39 55 -25 -3 -58 -59 -21 -44 -62
right_child=1 5 3 8 23 6 18 -9 30 13 -12 -13 -14 -15 -16 16 -18 -19 -20 59 -22 22 29 24 -26 40 27 -29 -30 -31 31 50 33 -35 -36 36 -38 38 39 -41 -42 -43 60 -45 45 -47 -48 48 49 -51 51 -53 -54 -55 -56 -57 57 58 -60 -61 61 -63
leaf_value=-0.10005904925890852 -0.095895057507079856 0.057555793906450228 0.010424941280603018 0.053175244799035896 -0.11272009768824053 -0.11890135903195927 -0.037262479119853094 0.058098808294527876 0.038908425062198895 -0.0074104965394911765 0.0056983318201498734 -0.0047028652571299897 0.013952071665502134 0.058396969567051996 -0.054090810104510612 0.044460020730213289 0.050571669297665545 -0.075881090275635152 0.06389246883992114 -0.097018992681719499 -0.058294414004888412 -0.021948507788886212 -0.10388266682317647 -0.098423116290075052 -0.0072684063828179647 -0.004207307043804627 -0.11575452558712369 -0.0097741991476660538 0.064476521517379079 -0.005369969714833586 -0.028537479491378095 -0.022191610443893377 0.036360520972292025 -0.04880260738683137 0.068452347676516007 0.025337793894416566 -0.076722061083795035 0.055117185655291036 -0.074325064743288136 0.045316305707278126 0.05852109545358726 0.053599722003164263 0.0064333186146911057 -0.095075692151469382 0.006537290497126938 -0.088382874699204236 -0.10956059510700794 0.058377794688857967 0.041396858431549423 -0.045486511440936239 -0.098420572484967633 -0.030384132624043943 -0.052432301729091663 0.0093756626581520362 -0.11478834623287321 -0.034280071763728569 0.068046787030359837 0.051676139222204258 -0.017255261528512561 -0.037019913278976045 -0.067213572537274946 -0.001036874533344892
leaf_weight=58.393828690052032 13.340276658535013 54.230492666363716 4.7679637670516986 3.0302312374115017 2.7013123631477338 3.5024788826704016 2.6418777257204082 181.90959332883358 2.8077020496129999 3.1331780701875678 4.3603671789169303 3.0809668749570847 2.3123096674680701 9.3676106929779035 3.4150107502937308 2.0101912468671799 7.0555131286382657 2.6386297047138214 11.689188942313192 2.4394330680370331 2.2182961404323569 2.1192280203104072 2.1276067197322837 3.1914838999509794 4.4770397394895545 3.8223714828491193 2.3036692440509796 2.359768807888031 9.8615708351135236 2.5512852072715759 2.3140221089124697 2.3602059483528128 5.2303832471370697 2.7412742972373962 3.5350088179111472 3.4093176126480094 2.9992236942052841 10.400147438049318 2.2866159677505484 2.0200927257537842 7.1293505430221558 5.941106989979744 3.5571030080318415 65.931035369634628 3.1171476989984512 2.4799663126468658 2.8507170677185059 4.9193502962589246 3.4634021669626236 2.9717282652854919 7.0195869952440244 2.2860610038042068 4.7767910212278357 3.9703522324562064 3.4351655393838882 3.6687178015708923 5.454590290784834 2.9585638344287872 4.5432322323322296 3.7883005738258362 4.0009074807167053 2.5158905535936356
leaf_count=235 54 275 22 15 11 15 12 943 13 15 20 14 10 47 15 10 34 12 60 10 10 10 9 13 19 18 10 11 49 12 10 10 24 12 18 17 14 52 10 10 34 29 16 265 13 10 12 25 17 14 29 10 20 19 14 15 28 15 22 16 17 11
internal_value=0 0.0391175 -0.0643219 -0.0519026 -0.0691101 0.0460812 0.018931 0.0495361 -0.0177799 0.037482 -0.0594043 -0.065458 -0.0732995 0.0193591 0.0105069 -0.0035792 0.0210144 -0.0238445 0.0357622 -0.0297578 0.0163282 0.020968 0.00597209 -0.0858238 -0.0586727 0.0146172 -0.016714 -0.0621269 0.0471438 -0.0501661 -0.0338094 -0.0457488 -0.0245093 0.00707483 0.0205614 0.0088608 -0.0224266 0.0203385 0.0284862 -0.0182064 0.0366276 0.0337365 -0.0108214 -0.0912271 -0.0606502 -0.0355199 -0.0732588 0.0491756 0.0260145 0.00127432 -0.0696656 -0.0817065 -0.0844356 0.0424795 -0.0810264 -0.0641205 0.0530898 0.0343969 0.00992995 -0.0605218 -0.0246816 -0.0416652
internal_weight=0 375.511 226.425 168.031 111.702 350.721 39.5917 311.129 56.3292 129.22 24.7897 6.58345 20.4294 50.6784 41.3108 22.7 11.7043 4.64882 33.0083 10.9957 37.8958 35.6775 22.6828 89.0019 14.7724 18.6454 7.69367 4.66344 12.9947 4.67889 37.6839 24.8023 13.1364 7.97166 18.0039 14.4689 6.40854 21.3191 18.6772 4.30671 10.9517 8.06034 12.8816 74.2295 8.29843 5.59711 5.16474 78.5414 11.3545 6.43513 11.6659 9.30565 18.1171 14.3705 10.2954 6.8602 67.1869 12.9564 7.5018 6.22773 10.0739 6.5168
internal_count=2831 1880 951 716 464 1776 192 1584 252 641 104 29 84 245 198 104 56 22 163 48 183 173 109 360 61 88 36 21 64 21 164 107 58 36 88 70 31 103 91 20 52 39 57 299 34 23 22 396 56 31 49 39 74 71 42 28 340 65 37 26 44 28
is_linear=0
shrinkage=0.05


Tree=6
num_leaves=63
num_cat=0
split_feature=30 16 16 30 22 29 19 24 28 31 23 35 30 10 31 28 24 19 29 34 12 2 17 6 12 28 35 6 13 17 26 30 33 6 24 21 19 33 5 6 13 34 19 25 22 17 9 33 9 30 11 31 25 10 12 13 33 9 25 30 25 31
split_gain=549.362 94.7207 35.8863 35.4047 43.6707 12.9965 10.228 9.14271 18.5093 8.22721 8.46606 7.93197 7.69954 6.4089 6.23606 6.12953 7.57043 5.5952 5.47586 5.63432 5.34993 5.28418 5.20212 4.85421 6.164 4.75962 4.73893 5.42377 4.5002 4.56303 4.36219 4.2249 4.94914 4.67427 4.62884 6.34334 3.58066 4.36772 3.54313 7.86527 3.58502 3.54021 3.89033 3.37207 3.32029 4.76003 3.8606 4.79483 3.04034 3.00442 2.9798 3.65554 2.96659 2.93858 2.93535 3.28968 2.87232 2.83401 2.70843 2.67663 2.63922 3.95394
threshold=3.5000000000000004 1.0000000180025095e-35 1.0000000180025095e-35 1.5000000000000002 1.0000000180025095e-35 9.5000000000000018 21.500000000000004 5.5000000000000009 6.5000000000000009 12.666190480000003 7.5000000000000009 1.9050000000000002 5.5000000000000009 1.0000000180025095e-35 11.918831170000002 5.5000000000000009 5.5000000000000009 24.500000000000004 7.5000000000000009 -0.54999999999999993 132.85000000000005 1.5000000000000002 1.0000000180025095e-35 120.50000000000001 114.35000000000001 12.500000000000002 -1.0000000180025095e-35 142.50000000000003 1.0000000180025095e-35 1.0000000180025095e-35 1.0000000180025095e-35 2.5000000000000004 9.1500000000000021 130.50000000000003 2.5000000000000004 1.0000000180025095e-35 19.500000000000004 13.300000000000002 2.5000000000000004 139.15000000000003 1.0000000180025095e-35 1.0000000000000002 22.500000000000004 11.991507935000003 5.5000000000000009 1.0000000180025095e-35 2.5000000000000004 8.2500000000000018 11.500000000000002 2.5000000000000004 3.5000000000000004 13.371250000000002 12.330952380000001 4.5000000000000009 129.95000000000002 1.0000000180025095e-35 10.100000000000003 36.500000000000007 12.398333335000002 5.5000000000000009 13.051875000000003 12.809090910000002
decision_type=2 2 2 2 2 2 2 2 2 2 2 2 2 2 2 2 2 2 2 2 2 2 2 2 2 2 2 2 2 2 2 2 2 2 2 2 2 2 2 2 2 2 2 2 2 2 2 2 2 2 2 2 2 2 2 2 2 2 2 2 2 2
left_child=2 9 -1 4 20 12 15 8 23 -2 -11 -12 13 -3 17 28 22 59 -6 -20 21 -4 54 24 -7 -19 27 -22 -5 49 -14 34 -33 43 -8 -36 37 -25 40 -40 -15 48 44 -34 45 -43 -46 -48 53 -30 51 60 -35 -42 55 -17 -31 -49 -10 -9 61 -16
right_child=1 5 3 6 18 7 31 14 58 10 11 -13 30 38 50 16 -18 25 19 -21 26 -23 -24 36 -26 -27 -28 -29 29 56 -32 32 33 52 35 -37 -38 -39 39 -41 41 42 -44 -45 46 -47 47 57 -50 -51 -52 -53 -54 -55 -56 -57 -58 -59 -60 -61 -62 -63
leaf_value=-0.09460565039642152 -0.079394685688494851 -0.049478510141783089 -0.061223368642175625 0.062666410954059601 -0.089903754176843986 0.045055368193590344 -0.11090013333138769 0.0047235861797708546 -0.091484849947854427 0.039374159674832529 -0.12196561921644292 -0.0074069274017711899 0.058965095246058613 0.056614190977096392 0.068011647061694824 0.010332730541021311 0.043256271677492138 0.011992555198266719 -0.0070128578977839764 -0.072001147305375948 0.026136985976918787 0.021824396899379494 -0.085106476371115014 -0.0051104193296203984 -0.068303033474124503 -0.075461237470170417 0.040755640041777522 -0.070364174907097357 -0.011668537467244181 0.0078744564562750769 0.0043322541352146899 0.029782708303429981 0.033925552939698969 -0.10978829737634213 0.0014486769946374135 -0.099409779572106727 0.056447128069270949 0.067598725129539017 -0.037257335984796906 0.069244269891852825 0.053767376755827545 0.067731353264652364 -0.039641322087376175 -0.049230083178410648 0.067724283574219155 -0.0011539975466523539 0.05081666311862524 -0.069813746649273895 0.064118166300838234 0.058855043716322233 0.055712483213550691 0.067384578794304456 -0.034901216249005246 -0.013696283741759619 0.032329332630549656 -0.066756099485468193 -0.063514365267781647 -0.002087424021163652 -0.0251891585950592 0.059092105458800531 -0.040225794129382063 -0.025544268462940653
leaf_weight=58.663449332118034 15.056140154600145 1.9897251725196827 5.8682381659746188 4.8506511747837076 59.625779390335083 2.1437514722347286 3.7038158923387527 3.7247355729341525 4.1571475416421881 3.6819887310266477 2.6410427689552307 3.5313957631587982 152.440983325243 33.946631088852882 2.5130617022514325 2.3394973129034025 3.5138552486896506 3.9582060873508444 3.8270792663097408 25.944705411791801 3.1582883000373849 2.8435529768466949 4.1976369917392731 7.2906256318092364 2.7217523604631424 2.5633512288331985 8.0485899150371516 2.7015170753002167 2.334870308637619 2.860881894826889 3.7434584200382224 3.2797166109085092 2.5656985789537412 2.7211717069149017 3.731627032160759 2.6775465160608292 11.222661271691321 2.8819132447242737 4.1285991072654715 2.9883643239736557 3.4987156689167049 8.4893596470356005 2.2630329281091681 2.3229200839996338 2.317913994193078 3.5592390149831781 2.7705560475587827 2.4779597222805023 13.820390686392782 4.2757267504930496 38.09822940826416 3.4362568259239197 2.5728326141834259 2.9966073483228683 2.2316640168428421 3.3881814330816269 2.7764043807983398 4.1009930819272995 2.4476713687181473 5.7715185135602951 2.2472525238990784 2.051091343164444
leaf_count=235 61 9 25 23 239 11 15 18 17 16 11 16 817 175 13 11 17 18 16 105 15 13 18 36 12 11 39 12 11 13 18 15 12 11 16 11 56 15 20 15 18 44 11 10 12 18 14 12 72 21 199 18 11 15 10 15 12 20 11 30 11 10
internal_value=0 0.0379904 -0.0609285 -0.0491942 -0.0654557 0.044832 -0.016865 0.0293601 0.00790358 -0.0561479 -0.0206301 -0.0564239 0.0509588 0.0392524 0.0403163 0.00120395 -0.0213843 0.0132778 -0.0811596 -0.0636471 -0.00339214 -0.0341163 -0.040068 0.0267215 -0.0183571 -0.0223819 0.0158526 -0.0183525 0.0219061 0.00576344 0.0576556 -0.0419806 -0.0236351 -0.0408404 -0.0664019 -0.0406867 0.0369729 0.0154883 0.0412733 0.00746196 0.0442722 0.0352222 0.0229951 -0.00558743 0.0289721 0.0473821 0.0099605 -0.0043602 0.0508578 0.033946 0.0492746 0.0253401 -0.0733939 0.0226431 -0.0163154 -0.0352688 -0.0272851 -0.0275965 -0.0669164 0.037767 0.0041293 0.0259684
internal_weight=0 367.672 227.026 168.362 112.018 342.762 56.3447 97.2292 32.8655 24.9106 9.85443 6.17244 245.533 89.3481 64.3637 32.7694 15.6708 16.0178 89.3976 29.7718 22.6202 8.71179 12.157 26.2607 4.8655 6.52156 13.9084 5.85981 17.0985 12.2479 156.184 23.5753 13.4623 10.1826 10.113 6.40917 21.3952 10.1725 87.3584 7.11696 80.2414 46.2948 25.9791 4.88862 23.716 12.0486 11.6674 9.34951 20.3157 6.6106 48.3459 10.2477 5.294 6.49532 7.95934 5.72768 5.63729 6.57895 6.60482 9.49625 6.81141 4.56415
internal_count=2831 1880 951 716 464 1776 252 486 158 104 43 27 1290 455 328 151 71 77 360 121 104 38 54 130 23 29 66 27 80 57 835 101 59 44 42 27 107 51 446 35 411 236 131 22 120 62 58 46 105 32 251 52 22 33 36 26 25 32 28 48 34 23
is_linear=0
shrinkage=0.05


Tree=7
num_leaves=63
num_cat=0
split_feature=30 15 30 22 30 27 30 22 19 27 22 31 25 28 12 12 6 35 31 6 31 31 24 17 6 33 18 11 1 15 25 6 24 12 23 34 24 12 34 6 12 23 24 30 23 17 22 1 23 30 11 17 25 34 33 2 19 1 6 23 17 19
split_gain=500.316 38.3953 32.309 41.7096 15.6024 27.7835 14.2416 10.3615 10.3362 8.05864 7.56779 7.08579 6.7989 6.25801 5.92526 4.83064 6.80225 4.76146 4.66671 4.62018 4.43395 4.42705 4.11453 4.08925 5.24525 4.2732 4.081 3.87592 5.1326 3.81388 3.73944 5.4345 3.64919 6.29448 3.71785 3.62921 4.08293 3.58676 3.47327 3.86091 3.28109 3.1131 3.07327 3.54561 5.15455 3.33185 2.94918 2.82167 3.07476 3.10753 5.87174 2.65458 2.62538 2.61249 2.59851 2.63747 2.97129 2.55241 4.04482 4.03496 4.73571 3.84813
threshold=3.5000000000000004 1.0000000180025095e-35 1.5000000000000002 1.0000000180025095e-35 5.5000000000000009 2.5000000000000004 5.5000000000000009 6.5000000000000009 22.500000000000004 2.5000000000000004 5.5000000000000009 13.174242425000001 12.286857145000001 5.5000000000000009 140.85000000000005 119.95000000000002 129.50000000000003 0.55500000000000016 13.668333335000002 120.50000000000001 11.392307690000001 11.481250000000001 3.5000000000000004 1.0000000180025095e-35 133.55000000000004 10.950000000000001 1.0000000180025095e-35 4.5000000000000009 40.500000000000007 1.0000000180025095e-35 12.6225 127.50000000000001 3.5000000000000004 123.95000000000002 11.500000000000002 2.0000000000000004 5.5000000000000009 109.75000000000001 0.55000000000000016 129.50000000000003 150.25000000000003 7.5000000000000009 3.5000000000000004 2.5000000000000004 8.5000000000000018 1.0000000180025095e-35 5.5000000000000009 40.500000000000007 10.500000000000002 4.5000000000000009 8.5000000000000018 1.0000000180025095e-35 12.258333335000001 0.55000000000000016 10.100000000000003 2.5000000000000004 23.500000000000004 17.500000000000004 133.05000000000004 11.500000000000002 1.0000000180025095e-35 37.500000000000007
decision_type=2 2 2 2 2 2 2 2 2 2 2 2 2 2 2 2 2 2 2 2 2 2 2 2 2 2 2 2 2 2 2 2 2 2 2 2 2 2 2 2 2 2 2 2 2 2 2 2 2 2 2 2 2 2 2 2 2 2 2 2 2 2
left_child=2 4 3 14 5 7 10 20 13 -6 41 26 -9 42 23 -8 -17 40 -5 21 32 -15 -21 -1 25 -25 27 28 -11 57 31 -24 33 -2 -34 36 -12 -29 39 -39 -16 -3 43 44 -4 -44 -22 48 49 50 -48 -14 -18 -51 -55 56 -56 -10 59 60 -59 -60
right_child=1 6 8 18 9 -7 15 12 29 11 35 -13 51 19 17 16 52 -19 -20 22 46 -23 30 24 -26 -27 -28 37 -30 -31 -32 -33 34 -35 -36 -37 -38 38 -40 -41 -42 -43 45 -45 -46 -47 47 -49 -50 53 -52 -53 -54 54 55 -57 -58 58 61 -61 -62 -63
leaf_value=-0.06530370437555337 0.042192594459374871 -0.024672924701453644 -0.1024353943692953 -0.083702366673700235 0.055436961483606918 -0.096014677801877876 0.068043527748660557 -0.07560417310578009 -0.082224926500277656 -0.084480117999557305 -0.069966102809752975 0.061724729515429094 0.041992304200061878 -0.10306500718336703 0.016950847710562475 -0.069917339559861499 -0.010608434990886957 0.045738794422777916 -0.022240241909031067 -0.057778828946067742 0.050755918186957488 -0.013503413972757453 0.029372889053412916 -0.0052983148793753045 0.03542707096649908 -0.091864825330490577 0.069537124430696096 -0.038835995434161191 0.0078444285528858609 -0.09045698606130162 0.037027544120178585 -0.053471573491986592 0.035140342663336779 -0.080780029760513405 -0.030558442053275237 -0.1008870393171768 -0.0055914465938390855 -0.046380471835906406 0.054524840895326609 0.047523714283089401 -0.063991433987102025 0.053414455121679284 0.069885727648194104 0.011615211296661107 -0.0044346800004321455 0.0039617637664698824 0.035034703310795633 0.062113734269014065 -0.015425951948554843 0.061528823711332885 -0.065036102558983677 -0.026686446572144241 0.049334782186914179 0.05827676105420692 0.045809493810872265 -0.030875909026330695 -0.015432340192582383 0.057188033095801366 -0.086709078319479591 -0.063431996705272942 -0.033092120913416075 -0.01057138099910143
leaf_weight=6.0150283277034768 1.9178734570741678 2.8502046763896969 2.1195210069417971 126.76449014246464 165.61735945940018 4.3261909633874884 4.3322870433330527 3.3057343512773496 3.6784010231494966 2.4557003676891389 6.2744188010692579 10.720296129584311 3.4694391041994095 3.8683474510908153 2.7002089917659742 2.3347990661859495 2.8895013332366943 5.8529238104820251 3.1655364930629721 5.1510165631771114 46.941098406910896 2.1448000818490982 3.1384379565715772 3.3999619334936142 3.5510647743940353 2.4549188166856766 2.7240892350673667 2.1806984245777121 3.8899458050727844 5.8985019773244849 3.7556794434785834 5.3611041009426117 17.10774585604668 2.2749214321374893 2.4634386152029029 3.9808543920516959 4.0548982620239258 2.365758612751959 6.5327731370925903 2.0372008085250854 2.3344096839427948 2.3114426881074905 3.0069525390863401 7.5722973942756653 3.6564446538686752 5.2858027368783951 4.3534226566553107 6.83950151503086 3.8043601214885703 9.0513446331024188 2.2099971920251846 2.3668299913406372 4.9658895581960678 5.0545264482498196 6.6072826385498029 2.4390826374292365 2.8283907175064087 2.8426089584827441 5.2043231576681128 2.6455438435077667 2.9705364406108856 2.4364951997995377
leaf_count=26 10 13 9 509 907 18 23 14 15 11 27 58 17 16 13 11 14 29 13 22 247 10 15 15 16 10 14 10 19 24 17 23 87 11 12 17 18 11 33 10 10 11 15 35 17 24 22 35 18 48 11 11 26 26 34 12 14 13 21 11 13 10
internal_value=0 0.036909 -0.0578869 -0.0705801 0.0421837 0.0285247 -0.0136572 0.0329038 -0.0298511 0.0509466 -0.041606 0.0283467 -0.0183111 -0.0154233 -0.0131684 0.0238168 0.00501414 0.0150717 -0.0822049 -0.0333353 0.0370147 -0.0711197 -0.0202823 -0.0331065 -0.0125167 -0.0415952 0.0122185 0.00419563 -0.0278842 -0.0551707 -0.004522 -0.0228814 0.0178019 -0.0245297 0.0268708 -0.0603267 -0.0446951 0.0197157 0.0313915 -0.00293204 -0.0205798 0.0102955 0.00396048 -0.010891 -0.0403966 0.0278658 0.0420805 0.0326511 0.0271072 0.0320793 0.00133943 0.0141404 0.0272855 0.039845 0.0282516 0.0154714 0.0274519 -0.0446471 -0.0360613 -0.0122419 0.0110546 -0.0624304
internal_weight=0 359.879 226.975 156.239 325.885 127.361 33.9943 123.035 70.7368 198.524 19.4718 32.9065 9.142 45.0604 26.3085 14.5225 10.1902 10.8875 129.93 23.4194 113.893 6.01315 17.4062 15.421 9.40595 5.85488 22.1862 19.4621 6.34565 25.6764 12.2552 8.49954 23.764 4.19279 19.5712 14.3102 10.3293 13.1164 10.9357 4.40296 5.03462 5.16165 21.641 13.3483 5.77597 8.29276 90.129 43.1879 36.3484 32.544 6.56342 5.83627 7.85539 25.9806 16.9293 11.8748 9.43567 19.7779 16.0995 8.45869 5.81315 7.64082
internal_count=2831 1880 951 641 1720 647 160 629 310 1073 86 166 42 203 119 74 51 52 522 103 587 26 77 67 41 25 108 94 30 107 55 38 120 21 99 62 45 64 54 21 23 24 100 61 26 39 467 220 185 167 33 28 40 134 86 60 48 83 68 37 26 31
is_linear=0
shrinkage=0.05


Tree=8
num_leaves=63
num_cat=0
split_feature=30 16 16 30 22 29 1 24 28 3 31 24 34 33 31 3 29 33 12 3 12 9 2 9 24 33 3 12 17 35 33 31 35 12 31 19 9 24 12 30 11 31 21 1 3 25 30 33 33 11 1 21 34 30 22 12 8 28 12 31 12 29
split_gain=455.982 83.2289 31.2005 29.1096 35.6004 11.9793 9.46803 8.19199 15.8071 7.3894 7.59399 7.20259 7.97389 5.70183 5.66913 5.66964 5.37326 5.9076 5.05146 6.097 5.58144 4.95648 6.49193 8.27662 4.50423 8.4291 4.42472 4.41835 4.61471 4.16581 4.144 4.1388 4.10601 3.82186 3.91673 3.78385 3.6541 5.12102 5.59721 5.54609 3.9599 4.12916 3.5584 3.37858 3.35068 3.32896 3.26948 3.32487 2.83185 2.79239 3.42005 6.69791 2.74838 2.70644 2.90045 3.82833 2.57081 3.97002 2.53044 2.48541 2.29696 2.25277
threshold=3.5000000000000004 1.0000000180025095e-35 1.0000000180025095e-35 1.5000000000000002 1.0000000180025095e-35 9.5000000000000018 15.500000000000002 5.5000000000000009 6.5000000000000009 9613.0000000000018 13.196666665 5.5000000000000009 2.0000000000000004 14.700000000000001 11.918831170000002 9613.0000000000018 5.5000000000000009 13.300000000000002 120.55000000000001 9246.0000000000018 130.85000000000005 3.5000000000000004 2.5000000000000004 30.500000000000004 3.5000000000000004 9.1500000000000021 9246.0000000000018 132.85000000000005 1.0000000180025095e-35 1.2650000000000003 12.550000000000002 13.330952380000001 1.0000000180025095e-35 132.85000000000005 11.481250000000001 24.500000000000004 37.500000000000007 4.5000000000000009 125.35000000000001 2.5000000000000004 8.5000000000000018 11.591666665000002 5.5000000000000009 17.500000000000004 9528.0000000000018 11.651190480000002 5.5000000000000009 10.100000000000003 9.1500000000000021 3.5000000000000004 42.500000000000007 1.5000000000000002 2.0000000000000004 5.5000000000000009 5.5000000000000009 130.75000000000003 32.000000000000007 5.5000000000000009 119.95000000000002 11.658333335000002 144.05000000000004 13.500000000000002
decision_type=2 2 2 2 2 2 2 2 2 2 2 2 2 2 2 2 2 2 2 2 2 2 2 2 2 2 2 2 2 2 2 2 2 2 2 2 2 2 2 2 2 2 2 2 2 2 2 2 2 2 2 2 2 2 2 2 2 2 2 2 2 2
left_child=2 11 -1 4 27 9 24 8 26 42 13 43 31 21 15 35 -6 18 56 20 -20 46 53 -24 25 -5 61 28 -4 33 -27 -13 60 34 -28 -9 37 39 59 -8 41 -41 -3 -2 -38 -26 47 -11 -22 50 51 -16 -43 54 -23 -56 57 -18 -10 -39 -29 -7
right_child=1 5 3 6 16 7 36 14 58 10 -12 12 -14 -15 49 -17 17 -19 19 -21 48 22 23 -25 45 30 29 32 -30 -31 -32 -33 -34 -35 -36 -37 44 38 -40 40 -42 52 -44 -45 -46 -47 -48 -49 -50 -51 -52 -53 -54 -55 55 -57 -58 -59 -60 -61 -62 -63
leaf_value=-0.08654440649309332 -0.051288654728253814 0.054938138166152763 -0.076442787901583875 0.05173149701999679 -0.086005990528103843 0.049008608770934339 -0.077427364221846762 0.04846595635208107 -0.019798654973622862 -0.045710354596791306 0.054418334326638368 -0.022511925754807944 -0.10243836745786977 0.065739434971806759 0.051436157415361998 -0.04211156843867371 -0.0018335241340889708 -0.086488003364240534 0.024084523605747681 -0.071032377930946217 -0.08207239397581903 0.04599420328562287 0.047282440611767403 -0.072252596895792956 -0.0016020447025730236 -0.1023603257269593 -0.042726731169110202 0.0078177365265520698 -0.0018843173713077727 0.051446880580824243 -0.0088060171678467046 0.052831199470926793 0.03874201590762158 -0.067713357908452745 0.049063773902689435 -0.011050574935602122 0.034727939231241983 0.071173242646715984 -0.064120943970091229 -0.073968332069592066 0.024851103844486837 -0.037268976523512735 -0.0040085468525769604 -0.1013864800721867 -0.041002099747459615 0.056455945122755605 -0.07712520550553216 0.032958828466078373 -0.01273378226163753 0.053424274505062076 0.065601248732632872 -0.048582777792894181 0.030981385217200397 0.064773731394701758 -0.039642184515879669 0.046815130172211061 -0.098673220581463023 -0.078582452038773329 -0.084339825772170016 0.00076851256518090994 -0.056547892151627158 -0.0085272334386653405
leaf_weight=58.446874260902405 6.5520187914371508 167.48890309035778 3.359878286719324 2.9505843073129681 42.2314612865448 13.496734932065012 9.3339850157499349 8.0785473585128766 2.3448738604784003 2.5191128402948406 26.530798241496086 6.4336049109697324 2.4808503389358512 5.6079122275114051 3.4641822576522809 3.6789968609809867 2.4839595854282397 15.703992292284964 5.8629837483167666 6.4291721284389487 2.7338891327381134 6.4309146404266411 2.4674958437681189 3.5052759051322937 3.8575732409954053 2.3853517323732376 2.1467224210500699 3.668870344758032 5.4283536970615387 2.7795539200305939 2.3496115654706955 2.5433129519224167 7.8315576910972595 2.7023551464080811 2.5339830815792084 3.9892867952585211 3.8494460880756369 2.0715856850147238 2.3619410842657089 5.2556409388780576 2.8418594151735315 4.4598086029291153 2.5999566316604605 6.9196076095104218 2.3536943942308426 6.8592164069414139 2.1138776540756226 2.8769888877868652 3.1915197223424911 36.17867386341095 3.2512775212526321 3.2387705743312836 2.2040127217769623 5.9836193323135367 3.1061117500066757 2.178364634513855 5.4799971431493759 5.2381943166255951 4.310169443488121 3.1743510961532593 2.227665051817894 1.946677342057227
leaf_count=235 27 936 14 15 170 71 38 43 10 12 147 27 10 31 19 16 10 63 24 26 11 33 13 18 18 10 10 17 24 14 11 12 39 12 13 18 18 10 10 22 13 19 13 28 10 34 12 15 13 199 18 15 10 34 15 11 22 21 18 14 10 10
internal_value=0 0.0358335 -0.0550741 -0.0441373 -0.0588954 0.0425363 -0.0148167 0.0274801 0.00705278 0.048609 0.0340282 -0.0522355 -0.0230936 0.0193238 0.0381299 0.0122261 -0.0730542 -0.061447 -0.0489311 -0.0318643 -0.0105027 0.0109762 0.0222044 -0.0228698 0.0146093 -0.0146012 0.0248955 -0.00270667 -0.0303892 -0.00072637 -0.0559363 -0.00116594 0.0150147 -0.0203684 0.00696569 0.0287915 -0.0291021 -0.035969 -0.000206219 -0.0472608 -0.0281856 -0.0408307 0.0540371 -0.0770211 0.00599324 0.0355576 -0.0244156 -0.00376704 -0.0447255 0.0469717 0.02352 0.00310844 -0.0146956 0.0374153 0.023442 -0.00400279 -0.0724816 -0.0538949 -0.061599 0.0285709 -0.0164991 0.0417561
internal_weight=0 352.48 226.627 168.18 111.871 327.55 56.3087 94.1408 32.2611 233.409 63.3205 24.9294 11.4578 36.7897 61.8797 15.7468 89.3552 47.1237 31.4197 18.2176 11.7884 31.1818 23.6718 5.97277 18.4023 7.68555 25.606 22.5163 8.78823 10.1626 4.73496 8.97692 13.7281 7.38306 4.68071 12.0678 37.9063 31.7032 7.60788 24.0953 14.7613 11.9195 170.089 13.4716 6.20314 10.7168 7.50998 5.3961 5.92541 46.1329 9.95423 6.70295 6.66382 17.699 11.7154 5.28448 13.2022 7.72215 6.65504 5.24594 5.89654 15.4434
internal_count=2831 1880 951 716 464 1776 252 486 158 1290 341 104 49 194 328 77 360 190 127 74 48 163 124 31 88 36 130 104 38 49 21 39 66 35 23 61 164 136 34 102 64 51 949 55 28 52 39 27 24 251 52 34 29 93 59 26 53 31 28 24 27 81
is_linear=0
shrinkage=0.05


Tree=9
num_leaves=63
num_cat=0
split_feature=30 16 16 30 28 29 1 24 28 30 27 24 34 15 31 3 29 33 6 26 35 6 12 24 33 12 6 33 31 3 33 19 19 8 34 3 3 25 19 1 9 24 12 30 23 24 24 25 24 1 3 8 6 34 6 6 30 9 9 19 31 19
split_gain=416.804 76.6775 28.5741 26.4975 32.406 11.4446 8.5465 7.65516 14.2788 7.40696 10.1785 6.47046 7.20103 6.36665 5.38024 5.14104 5.03158 5.4193 5.22697 4.44356 4.33088 4.31233 5.40949 4.12684 7.62828 4.10329 5.64315 4.28513 3.78729 3.69494 3.64937 3.53184 3.51317 4.93799 3.501 3.28103 3.51789 3.39157 4.35298 3.4999 3.28051 4.58182 5.0286 4.97139 3.62328 4.31343 3.1309 3.12621 3.12454 3.10649 3.03587 3.01596 4.80399 3.1752 2.60399 2.51407 2.45766 2.44062 2.39816 2.39557 2.34373 2.3257
threshold=3.5000000000000004 1.0000000180025095e-35 1.0000000180025095e-35 1.5000000000000002 1.0000000180025095e-35 9.5000000000000018 15.500000000000002 5.5000000000000009 6.5000000000000009 5.5000000000000009 1.5000000000000002 5.5000000000000009 2.0000000000000004 1.0000000180025095e-35 11.918831170000002 9613.0000000000018 5.5000000000000009 13.300000000000002 134.50000000000003 1.0000000180025095e-35 0.55500000000000016 120.50000000000001 114.35000000000001 3.5000000000000004 9.1500000000000021 136.05000000000004 158.50000000000003 10.950000000000001 13.330952380000001 9124.5000000000018 12.550000000000002 24.500000000000004 19.500000000000004 11.500000000000002 1.0000000000000002 9377.0000000000018 9922.0000000000018 12.398333335000002 19.500000000000004 12.500000000000002 37.500000000000007 4.5000000000000009 125.35000000000001 2.5000000000000004 8.5000000000000018 2.5000000000000004 1.5000000000000002 11.651190480000002 5.5000000000000009 17.500000000000004 9528.0000000000018 2.5000000000000004 129.50000000000003 -1.0000000180025095e-35 139.15000000000003 139.15000000000003 4.5000000000000009 11.500000000000002 36.500000000000007 18.500000000000004 11.658333335000002 18.500000000000004
decision_type=2 2 2 2 2 2 2 2 2 2 2 2 2 2 2 2 2 2 2 2 2 2 2 2 2 2 2 2 2 2 2 2 2 2 2 2 2 2 2 2 2 2 2 2 2 2 2 2 2 2 2 2 2 2 2 2 2 2 2 2 2 2
left_child=2 11 -1 4 25 9 23 8 21 10 13 49 28 35 15 31 -6 18 51 -11 -15 22 -7 24 -5 27 -27 -4 54 -20 -26 55 33 -23 -35 -3 37 38 59 -40 41 43 60 -8 -45 -46 -31 -25 -39 -2 -42 52 -18 -53 -13 -9 -36 -47 -10 -37 -43 -50
right_child=1 5 3 6 16 7 40 14 58 19 -12 12 -14 20 -16 -17 17 -19 29 -21 -22 32 -24 47 30 26 -28 -29 -30 46 -32 -33 -34 34 56 36 -38 48 39 -41 50 42 -44 44 45 57 -48 -49 61 -51 -52 53 -54 -55 -56 -57 -58 -59 -60 -61 -62 -63
leaf_value=-0.082829882198641111 -0.048542122808498185 0.050760816398788169 0.011543403545456625 0.050380129576491219 -0.082400179501272486 0.042843788072662342 -0.073233177936140884 0.065472182401696763 -0.085476526992013704 0.055777342358305559 -0.080134715303958284 -0.045540093177011125 -0.097410366357712622 -0.054265925367249571 0.045812752402839815 -0.039581755080309373 0.010057754449744096 -0.082629382488541805 0.035391433969051304 -0.00062900302931430787 0.032742014705584223 0.066385825002402421 -0.064499462288579043 -0.0015211097361823248 -0.09574306989731439 0.042182491543851647 -0.034330470497300973 -0.051086921380141127 0.0512707716002644 0.0042972398650163645 -0.0083409250932081572 -0.010461146835928168 0.053899419669034991 -0.060970272365924033 -0.026077227795070979 -0.0075263817676112822 0.055112752910937639 0.054158596213090875 -0.082686409781590905 0.001125750067786189 0.033430298718506259 0.069729194766568192 -0.06017420824146822 0.015342157510172547 0.0024656406666140815 -0.021202709870396415 -0.068668857324217944 0.054978538557409987 0.042157624147370724 -0.096564974916404048 -0.038678981150054158 -0.020453266551131541 -0.078830390936410699 -0.079836469737762775 0.020290212579396644 0.0035613414612989574 0.047950202343363606 -0.083460975038753993 -0.02543823748783049 0.067671377415212355 0.00073024152477025868 -0.029512635259038231
leaf_weight=58.024644613265991 6.5759309381246585 44.998336374759674 4.7974685132503527 2.880047649145129 41.883936777710915 2.048546224832541 9.373955443501476 5.5582265108823758 3.6445242315530768 139.61897480487823 1.8554273694753636 4.0803016573190671 2.4784654676914206 2.9828477650880805 44.972378507256508 3.7173955291509619 3.4363609999418321 15.617481634020804 2.6756919622421247 3.5810824036598197 2.7476345598697662 2.9590122252702731 2.7481901943683624 3.8596307486295682 2.4216828793287277 7.8325453549623472 3.4808115065097809 6.3406607359647751 2.4910219758749008 2.7024887353181839 2.3564155101776123 4.0029954016208649 10.650079682469366 2.3129134476184845 2.0386076718568802 1.9612099230289475 9.5325731933116931 8.1333780139684659 2.2117794454097748 2.851471871137619 3.8001972138881674 2.0103159844875327 2.3902418911457062 3.807042047381402 3.7279798686504346 2.306464746594429 3.2240787148475647 6.6955457031726837 2.0468054562807074 6.9021574854850769 2.3698716759681702 2.685779929161078 2.7257444858551025 13.906962722539896 2.3774947971105576 2.3259794116020203 2.4913813322782516 4.9578912109136581 3.0595771074295044 2.3025436699390411 3.1736933887004852 2.5323505997657776
leaf_count=235 27 253 22 15 170 11 38 31 15 817 8 17 10 13 251 16 14 63 11 18 14 16 12 18 10 41 15 26 12 11 11 18 56 12 10 10 53 44 10 14 18 10 10 17 16 10 13 34 11 28 10 11 11 56 10 12 13 21 13 12 14 13
internal_value=0 0.0348357 -0.0525927 -0.0421144 -0.056239 0.041415 -0.0141047 0.0265903 0.00678847 0.0474483 0.0356759 -0.0496682 -0.0219903 0.0382868 0.0370353 0.0117386 -0.0697999 -0.0585651 -0.0465798 0.0543668 -0.0125476 0.0240116 -0.0186563 0.014046 -0.0138959 -0.00256764 0.0186415 -0.0241105 -0.00110191 -0.0133783 -0.0526389 0.0277876 0.0340188 0.0124178 -0.010919 0.0420912 0.0297349 0.0187584 -0.00414051 -0.0354859 -0.0276266 -0.0341101 -0.000176339 -0.0447426 -0.0266966 -0.0412562 -0.0353966 0.0343187 0.035559 -0.0731347 0.00573373 -0.0591314 -0.029261 -0.0702244 -0.0213041 0.0472074 0.014636 -0.0636937 -0.0580766 0.0330825 0.0274875 0.00252276
internal_weight=0 344.792 225.466 167.441 111.31 319.886 56.131 92.5298 31.9528 227.356 84.1564 24.9054 11.4273 82.3009 60.577 15.6046 88.8585 46.9746 31.3571 143.2 5.73048 25.2487 4.79674 18.2133 7.65815 22.4515 11.3134 11.1381 8.94882 8.60226 4.7781 11.8872 20.452 9.80191 6.8429 76.5704 31.5721 22.0395 9.327 5.06325 37.9177 31.7476 7.57425 24.1733 14.7994 10.9923 5.92657 10.5552 12.7125 13.4781 6.17007 22.7548 6.16211 16.5927 6.4578 7.88421 4.52999 7.26436 6.7041 4.26375 5.18401 4.57916
internal_count=2831 1880 951 716 464 1776 252 486 158 1290 455 104 49 447 328 77 360 190 127 835 27 130 23 88 36 104 56 48 39 35 21 61 107 51 35 420 167 114 46 24 164 136 34 102 64 47 24 52 68 55 28 92 25 67 27 43 23 31 28 22 24 24
is_linear=0
shrinkage=0.05


Tree=10
num_leaves=63
num_cat=0
split_feature=30 16 16 30 28 30 27 3 1 27 31 24 34 24 9 28 10 30 11 25 17 29 34 12 21 24 9 1 24 25 12 2 6 23 3 31 25 9 9 17 29 25 12 25 24 10 25 1 3 25 12 23 31 6 31 25 28 29 35 12 25 6
split_gain=381.665 70.7225 26.3277 24.2467 29.5873 11.0418 18.491 9.69489 7.7202 7.68607 6.09859 5.83894 6.54119 5.21183 7.60047 4.97955 8.88539 5.75193 6.50264 7.02467 5.5384 4.7449 4.27962 4.00499 4.39965 5.99399 3.95074 3.8891 3.78278 6.49487 3.73573 4.36778 4.08643 3.58704 5.80203 3.46883 2.96594 2.94817 4.37624 5.63837 5.62093 5.10639 5.75925 3.45474 3.10587 2.96443 2.93809 2.89257 2.75237 2.72164 2.69124 2.58962 3.3993 2.53287 2.52057 2.46361 4.4129 2.45902 2.37709 4.35797 3.17219 2.36638
threshold=3.5000000000000004 1.0000000180025095e-35 1.0000000180025095e-35 1.5000000000000002 1.0000000180025095e-35 5.5000000000000009 3.5000000000000004 9377.0000000000018 15.500000000000002 2.5000000000000004 13.752777780000001 5.5000000000000009 2.0000000000000004 8.5000000000000018 16.000000000000004 5.5000000000000009 3.5000000000000004 4.5000000000000009 3.5000000000000004 12.246428570000001 1.0000000180025095e-35 5.5000000000000009 -0.54999999999999993 133.95000000000002 9.5000000000000018 14.500000000000002 16.000000000000004 16.500000000000004 3.5000000000000004 11.480769230000002 132.85000000000005 1.5000000000000002 158.50000000000003 6.5000000000000009 9102.0000000000018 13.330952380000001 12.246428570000001 37.500000000000007 30.500000000000004 1.0000000180025095e-35 10.500000000000002 12.497857145000003 113.25000000000001 12.988095235000001 4.5000000000000009 4.5000000000000009 11.651190480000002 17.500000000000004 9528.0000000000018 11.866071430000002 122.75000000000001 11.500000000000002 11.246428570000001 137.50000000000003 12.392857145000002 10.450000000000001 5.5000000000000009 12.500000000000002 1.9050000000000002 118.35000000000001 12.562500000000002 145.50000000000003
decision_type=2 2 2 2 2 2 2 2 2 2 2 2 2 2 2 2 2 2 2 2 2 2 2 2 2 2 2 2 2 2 2 2 2 2 2 2 2 2 2 2 2 2 2 2 2 2 2 2 2 2 2 2 2 2 2 2 2 2 2 2 2 2
left_child=2 11 -1 4 30 6 7 51 28 -7 15 47 35 14 -11 20 -17 27 -19 49 -9 -6 50 24 -15 -26 -22 -18 29 -5 31 -4 61 34 -24 -13 -16 38 39 40 -10 42 -40 44 45 -41 -30 -2 -39 -20 -23 58 -53 -21 -54 -44 -57 -35 -3 -60 -61 -32
right_child=1 5 3 8 21 9 -8 10 37 13 -12 12 -14 23 36 16 17 18 19 53 26 22 33 -25 25 -27 -28 -29 46 -31 32 -33 -34 57 -36 -37 -38 48 41 43 -42 -43 55 -45 -46 -47 -48 -49 -50 -51 -52 52 54 -55 -56 56 -58 -59 59 60 -62 -63
leaf_value=-0.07953103871386577 -0.046005437572828455 0.052422245083174016 -0.052081787816217862 0.033229696405858919 -0.079194501809949788 0.052458801816170159 -0.09591466701832789 0.055594422940990477 0.061875550629819434 -0.094383935939791885 0.053267726185347156 -0.020191654082871685 -0.093077674358241727 0.042996707690295385 -0.0099669248309019465 0.057595907295978591 -0.010778568303064345 -0.080412204374756283 0.0018233765107765589 0.066316519253927814 -0.059437479125204619 -0.048518295268025716 0.02907171337313651 0.06533183727430196 -0.047520746645386573 0.048761485928352596 0.025725202932101229 -0.084893973197739073 -0.0014443055165106944 -0.059105440722333813 0.01438121200450476 0.023126688265993109 -0.032339327957644957 -0.072637614607856671 -0.067376251376248308 0.049781406784660531 0.065719781459357654 0.032180928056161892 0.024808985093924846 -0.09520355063619941 -0.027134661126008687 -0.11648743154397277 -0.099052341688676993 0.016753049773812142 -0.0018256651361090344 -0.029230557941604285 0.053570200130395963 -0.092397443578576904 -0.036528155546800792 -0.072758128516839618 0.025680960261076403 -0.021354406982650981 0.065505576136054788 0.00096866838718179672 0.0059485348049483798 0.006396105183095792 -0.087820410478026273 -0.034595530369045398 0.063992115764940405 0.045344528786178187 -0.024577302087630634 0.067362704462235357
leaf_weight=57.424664363265038 6.5911605060100573 48.135149076581001 5.9673283249139804 3.7833330482244518 41.412068665027618 157.48303119838238 2.911237657070159 8.5256793051958066 3.6156226396560678 1.9959359019994725 8.3607377856969816 6.4712875485420209 2.4644612073898307 10.644212543964391 3.3002332895994186 4.4461406618356731 2.9206305146217355 2.1890701353549966 2.6818018555641157 4.7533005625009537 2.2596895545721045 2.4615816026926032 2.6992234736680976 8.2401165962219221 4.0074606090784064 2.7092704325914383 3.4273215383291245 4.4927280843257904 3.8615815043449384 3.834933266043663 6.9845439344644529 2.8536843508481979 3.5095987468957892 30.505186960101128 3.6923525333404541 2.4386139065027237 2.1296610981225967 3.7516040205955496 2.6478428244590777 4.1743574738502485 3.4815198630094528 2.6583605706691733 2.7101431041955948 2.2913578152656564 2.341200202703476 2.8757911175489426 6.5321668088436127 6.8539287894964218 2.3835726678371429 2.2490890026092529 2.4269204437732697 3.3073703795671445 4.1198273599147797 2.1551425009965897 3.1233659386634827 2.5348177701234818 2.4383489042520523 4.9351206570863715 4.7750787585973722 2.6080382913351059 4.290744811296463 3.0182957351207733
leaf_count=235 27 275 25 19 170 943 12 46 17 9 47 27 10 59 15 23 14 10 13 26 11 10 11 47 19 15 18 20 18 17 35 13 15 124 15 12 12 18 12 17 15 11 11 10 10 12 34 28 10 10 10 17 23 11 16 11 10 20 28 15 22 16
internal_value=0 0.0338864 -0.0503404 -0.0402656 -0.0538456 0.0403436 0.0285811 0.0316314 -0.0134377 0.0478596 0.0144223 -0.0473487 -0.0209818 0.0259292 -0.0109505 0.00632322 -0.00673186 -0.0200708 -0.00124516 0.0133927 0.0301026 -0.0668718 -0.0559492 0.0366266 0.023002 -0.0086842 -0.00811353 -0.0556948 0.0135135 -0.0132506 -0.00244137 -0.0277511 0.014081 -0.0611223 -0.0266454 -0.00104023 0.0197182 -0.0262448 -0.0323726 -0.0169391 0.0182114 -0.054686 -0.0387836 -0.0382926 -0.051723 -0.0682928 0.0331307 -0.0696548 0.00548682 -0.0321949 -0.0116817 0.0434845 0.0206457 0.0459307 0.0398237 -0.0606991 -0.0397984 -0.0673402 0.0475133 0.0272723 0.00185617 0.0303681
internal_weight=0 337.062 223.807 166.382 110.466 312.242 121.732 118.821 55.9166 190.51 48.4613 24.8195 11.3744 33.0269 7.42583 40.1006 25.8879 21.4418 14.0284 11.8393 14.2127 88.1325 46.7204 25.6011 17.3609 6.71673 5.68701 7.41336 18.012 7.61827 22.3335 8.82101 13.5124 41.8319 6.39158 8.9099 5.42989 37.9045 31.7694 18.7798 7.09714 12.9895 10.3312 11.6827 9.39135 7.05015 10.3937 13.4451 6.13518 4.93089 4.8885 70.3596 10.5506 6.90844 7.24319 7.68331 4.97317 35.4403 59.809 11.6739 6.89878 10.0028
internal_count=2831 1880 951 716 464 1776 657 645 252 1119 249 104 49 176 36 202 127 104 70 60 75 360 190 140 93 34 29 34 88 36 104 38 66 170 26 39 27 164 136 81 32 55 44 49 39 29 52 55 28 23 20 396 56 37 39 32 21 144 340 65 37 51
is_linear=0
shrinkage=0.05


Tree=11
num_leaves=63
num_cat=0
split_feature=30 16 16 30 22 29 18 30 27 1 15 25 19 19 29 31 18 24 26 23 8 12 34 6 27 11 10 23 31 24 11 24 25 17 13 25 12 11 9 9 17 29 25 12 8 34 12 13 34 19 25 9 9 17 29 30 34 23 12 12 25 22
split_gain=349.869 65.2779 24.4285 22.2225 27.6126 10.7034 7.22501 7.01342 8.72048 6.98707 5.80558 5.67233 5.69525 6.04838 5.38474 5.33717 6.2364 5.02966 4.39341 4.2027 4.89246 4.20195 3.89409 3.71131 3.61613 3.58896 4.46333 3.58501 3.57697 4.34599 3.86311 3.46887 5.82315 3.42182 2.90015 2.76302 2.72257 2.68408 2.65841 3.93414 5.08773 5.1755 4.47746 5.20069 3.38635 2.60046 2.55065 2.68479 4.57807 4.43513 3.44051 2.78296 2.97205 6.97699 3.17198 2.50936 3.59498 4.00903 2.42445 2.34962 2.25584 5.249
threshold=3.5000000000000004 1.0000000180025095e-35 1.0000000180025095e-35 1.5000000000000002 2.5000000000000004 9.5000000000000018 1.0000000180025095e-35 5.5000000000000009 1.5000000000000002 15.500000000000002 1.0000000180025095e-35 13.287857145000002 23.500000000000004 27.500000000000004 5.5000000000000009 13.330952380000001 1.0000000180025095e-35 5.5000000000000009 1.0000000180025095e-35 10.500000000000002 11.500000000000002 132.85000000000005 -0.54999999999999993 149.50000000000003 1.5000000000000002 4.5000000000000009 3.5000000000000004 6.5000000000000009 11.980000000000002 6.5000000000000009 7.5000000000000009 3.5000000000000004 11.480769230000002 1.0000000180025095e-35 1.0000000180025095e-35 11.651190480000002 129.75000000000003 7.5000000000000009 37.500000000000007 30.500000000000004 1.0000000180025095e-35 10.500000000000002 12.497857145000003 113.25000000000001 3.5000000000000004 2.7000000000000006 135.65000000000001 1.0000000180025095e-35 1.0000000000000002 22.500000000000004 13.707142855000003 1.5000000000000002 34.500000000000007 1.0000000180025095e-35 7.5000000000000009 1.0000000180025095e-35 0.40000000000000008 9.5000000000000018 122.75000000000001 124.95000000000002 10.450000000000001 5.5000000000000009
decision_type=2 2 2 2 2 2 2 2 2 2 2 2 2 2 2 2 2 2 2 2 2 2 2 2 2 2 2 2 2 2 2 2 2 2 2 2 2 2 2 2 2 2 2 2 2 2 2 2 2 2 2 2 2 2 2 2 2 2 2 2 2 2
left_child=2 15 -1 4 21 7 11 8 10 31 46 12 17 24 -6 16 -2 19 -9 -7 -21 33 58 28 -14 26 -19 36 30 -30 -15 32 -5 -4 -12 -33 -24 45 39 40 41 -11 43 -41 -42 -23 47 -3 50 51 -49 -50 53 54 -53 -29 -57 -58 -16 -54 -45 -62
right_child=1 5 3 9 14 6 -8 18 -10 38 34 -13 13 23 22 -17 -18 25 -20 20 -22 37 27 -25 -26 -27 -28 55 29 -31 -32 35 -34 -35 -36 -37 -38 -39 -40 42 44 -43 -44 60 -46 -47 -48 48 49 -51 -52 52 59 -55 -56 56 57 -59 -60 -61 61 -63
leaf_value=-0.076578151475684558 -0.065842084852677119 0.048871033001990166 -0.062031092877830256 0.032010992188771285 -0.078470726914358579 0.024661127677782637 0.052169348378529795 0.053807090480544585 -0.072360136093157154 0.060115930864549805 0.016009147121362192 0.043248662995955423 -0.0050629719924255535 0.016064609937008482 -0.045945180503469032 0.0056388909625863376 0.020441576889185895 0.046436788018912205 -0.0029290812173213467 0.016820919553897955 -0.077874586020678219 0.048813338350800747 -0.050098806052819439 0.069871557884419469 -0.074254703565224012 0.05640504691619045 -0.051716859522527116 -0.072899885938646117 -0.02562377424134021 0.054562077188950599 -0.059520469234941913 -0.0013714156472534856 -0.055459883818975 -0.0031750207252361747 -0.057344801942077396 0.052222936832066372 0.017992404940381065 -0.016138740525386528 0.0052515279060371817 0.023728869008802188 -0.057429591132395902 -0.025661866797919326 -0.10940278190610622 -0.094564717377995378 -0.0020128207064188941 -0.0083158222921283741 0.057722284649946512 0.056582572638773747 0.06390589297155487 -0.060754531406592593 -0.017088383907379018 0.064268754979921128 0.054684811543351232 -0.087141926541706299 -0.015008922514034965 -0.08973156643070003 -0.065993242020508464 0.0095182085175144968 0.024496685890657163 0.0014570228660179397 0.0180205220658986 -0.085038826775426513
leaf_weight=56.67576602101326 18.058841332793243 21.889418140053749 4.3675147742033023 3.7323216050863293 39.38151228427887 7.699120908975603 18.928397297859192 131.12117125093937 1.8927331417798985 3.5373779237270364 3.4676026105880728 16.272882550954819 3.2718005478382137 3.0075568109750765 2.4692532718181601 4.2683612108230582 2.3689038008451453 2.7563302218914059 3.5032594650983802 2.6100034415721893 2.8570894300937653 6.0174056589603406 3.6893874555826178 2.1529479771852484 4.4657077342271805 12.201821386814116 1.9975924938917158 25.117734611034393 2.7266303449869156 4.4437507688999176 3.8601270169019699 3.8634312897920591 3.8814040124416351 5.6827420145273209 2.2038169056177139 6.3698030114173889 2.4382306933403015 4.8845698982477179 6.0988946855068198 2.630404934287073 7.2435083091259003 3.4968559145927429 2.6881177276372901 2.6971031725406647 4.4504131376743317 2.9776014387607574 15.917880386114119 13.120205178856848 2.8876068741083207 1.934607833623885 1.8025097995996464 2.218565195798873 4.6299879997968656 2.2039929777383804 2.9255496859550476 2.9533305764198285 3.1690486967563629 3.9469327330589294 2.4172851741313934 3.7545826733112335 2.2817945182323456 2.6944078058004379
leaf_count=235 74 127 18 19 164 41 110 817 8 17 17 95 17 14 10 20 10 16 18 13 13 30 15 11 20 71 10 103 13 25 17 18 17 25 10 34 10 24 28 12 30 15 11 11 19 14 94 77 17 10 10 13 26 11 15 12 13 16 10 20 10 11
internal_value=0 0.0329728 -0.0482537 -0.038535 -0.0516103 0.0393091 0.0247489 0.0453401 0.0336998 -0.0128117 0.0362423 0.0173684 0.00957669 -0.00863332 -0.0648863 -0.0452111 -0.0558362 0.0240425 0.0523307 0.000856511 -0.0326667 -0.00412986 -0.0533071 0.00874449 -0.044997 0.0420465 0.00519275 -0.0582994 -0.00063026 0.0240704 -0.0264196 0.012975 -0.0125808 -0.028752 -0.0124949 0.0319891 -0.0230047 0.0136991 -0.0249805 -0.0307934 -0.0161272 0.0174741 -0.0519351 -0.0369425 -0.0363394 0.029902 0.040014 0.0351004 0.026604 0.0113002 0.0476839 0.0187865 0.0105052 -0.0127087 0.0191821 -0.0644457 -0.043357 -0.0241102 -0.0110988 0.0308496 -0.0577406 -0.0377819
internal_weight=0 329.421 221.854 165.178 109.513 304.725 89.2518 215.473 80.8491 55.6658 78.9563 70.3234 54.0505 23.9285 85.5827 24.6961 20.4277 30.122 134.624 13.1662 5.46709 23.9298 46.2012 16.191 7.73751 16.9557 4.75392 41.3147 14.0381 7.17038 6.86768 17.847 7.61373 10.0503 5.67142 10.2332 6.12762 13.8796 37.8189 31.72 18.7282 7.03423 12.9918 10.3037 11.6939 8.99501 73.2849 57.367 35.4776 20.5549 14.9227 18.6203 15.7327 7.34811 5.14411 35.187 10.0693 7.11598 4.88654 8.38457 7.67331 4.9762
internal_count=2831 1880 951 716 464 1776 486 1290 455 252 447 376 281 117 353 104 84 164 835 67 26 111 189 80 37 97 26 169 69 38 31 88 36 43 27 52 25 68 164 136 81 32 55 44 49 44 420 326 199 112 87 102 85 39 28 144 41 29 20 46 32 21
is_linear=0
shrinkage=0.05


Tree=12
num_leaves=63
num_cat=0
split_feature=30 16 16 30 22 30 27 27 19 24 34 29 22 8 31 11 11 29 24 9 33 6 25 30 25 13 17 12 33 25 12 33 12 21 24 17 6 17 31 23 22 30 24 6 6 9 31 30 33 6 24 1 31 8 6 34 25 5 10 8 23 25
split_gain=321.017 60.2505 22.7839 20.4424 25.4775 10.326 15.9433 7.1855 6.53508 5.20956 5.86012 5.14919 5.07899 5.82142 6.67615 4.76825 5.10542 5.29886 4.71132 6.67746 4.52962 4.53025 4.35119 4.64346 4.26477 4.19428 4.67322 4.18192 4.15814 3.89997 3.85625 4.48663 3.84619 4.00106 5.2385 3.44779 4.99569 3.35076 3.92454 3.34199 3.25022 3.30905 3.17884 3.11101 3.05502 2.88542 2.81638 2.78502 3.89318 3.64276 2.99215 2.76636 2.7084 2.68353 4.32058 2.81797 2.68191 2.62064 2.60149 5.50891 2.47865 2.46782
threshold=3.5000000000000004 1.0000000180025095e-35 1.0000000180025095e-35 1.5000000000000002 2.5000000000000004 5.5000000000000009 3.5000000000000004 2.5000000000000004 21.500000000000004 5.5000000000000009 2.0000000000000004 5.5000000000000009 5.5000000000000009 13.000000000000002 10.738636365000001 7.5000000000000009 4.5000000000000009 11.500000000000002 8.5000000000000018 16.000000000000004 13.300000000000002 134.50000000000003 11.305357145 4.5000000000000009 12.278571430000001 1.0000000180025095e-35 1.0000000180025095e-35 123.55000000000001 10.950000000000001 12.562500000000002 136.05000000000004 14.700000000000001 133.95000000000002 9.5000000000000018 14.500000000000002 1.0000000180025095e-35 135.50000000000003 1.0000000180025095e-35 11.392307690000001 12.500000000000002 5.5000000000000009 2.5000000000000004 1.5000000000000002 120.50000000000001 139.15000000000003 1.5000000000000002 11.980000000000002 2.5000000000000004 9.1500000000000021 130.50000000000003 3.5000000000000004 17.500000000000004 12.666190480000003 2.5000000000000004 129.50000000000003 -1.0000000180025095e-35 12.246428570000001 2.5000000000000004 8.5000000000000018 32.000000000000007 11.500000000000002 11.991507935000003
decision_type=2 2 2 2 2 2 2 2 2 2 2 2 2 2 2 2 2 2 2 2 2 2 2 2 2 2 2 2 2 2 2 2 2 2 2 2 2 2 2 2 2 2 2 2 2 2 2 2 2 2 2 2 2 2 2 2 2 2 2 2 2 2
left_child=2 9 -1 4 30 6 12 -7 25 51 44 -6 37 39 -15 16 17 29 19 -9 21 53 -17 27 -25 40 43 -24 46 -16 35 45 33 -20 -35 -4 -37 57 -39 -14 -5 -42 -23 -27 52 -32 -28 50 -49 61 -10 -2 -11 54 -13 -55 -21 -3 -40 -60 -45 -50
right_child=1 5 3 8 11 7 -8 18 47 10 -12 20 13 14 15 22 -18 -19 32 56 -22 42 23 24 -26 26 28 -29 -30 -31 31 -33 -34 34 -36 36 -38 38 58 -41 41 -43 -44 60 -46 -47 -48 48 49 -51 -52 -53 -54 55 -56 -57 -58 -59 59 -61 -62 -63
leaf_value=-0.073915925132828506 -0.041333186840874607 0.055499655018975927 -0.053848109960081894 0.061089710806747501 -0.075854735187719069 0.05045417700903862 -0.08834507164244583 -0.087914512722450378 -0.073312483908895082 -0.063382636855764313 -0.087243667903570604 0.013515162005889196 0.046521177727821161 -0.086442542414372076 -0.073891565133872308 0.063728985919842801 0.045994971877021673 0.065077083993143839 0.041009194234067327 -0.0090662755763835836 -0.073740869585424459 0.020355265186796416 -0.11000363302678606 -0.041240987264476184 0.030233065415591898 -0.041747371984888954 -0.050033385554961812 -0.016480737617689589 -0.077378833079255527 0.011893423991379035 -0.016798617682901366 -0.04408896348455621 0.063930027653271396 -0.044513065368268434 0.046644360811177128 -0.031146182688322723 0.05705827699070154 -0.020476708599847633 0.053623161175377923 -0.010390916801292387 0.052794450730626677 -0.023353080792502281 -0.040699950755861865 0.040271902344105853 0.031374279610855461 0.048848138232283365 0.025101362879585809 0.030543019291935376 0.03328000558398872 -0.061117677202717935 -0.017035936514891263 -0.086978848783794638 0.012890394974142867 -0.01590234302335846 -0.071312316205914161 -0.071851576008767279 0.064212669593088731 4.1829901225695365e-05 -0.043287805610718627 0.045701237863878488 -0.011267301284622569 -0.037658865967223641
leaf_weight=55.803181305527687 6.5727167129516619 29.246368438005451 5.2886431217193621 4.4075746834278124 38.719355300068855 148.12773869931698 2.933311164379119 2.0325409322977093 6.2714393734931946 2.46119876205921 2.4169223606586447 3.4218996763229432 20.868706628680233 1.7834870666265477 2.6934860199689892 1.84822817146778 13.800556048750876 1.9294264316558836 10.204985365271574 3.3001970648765564 14.8921040892601 4.4063784033060056 2.1206414997577641 3.3364708721637726 5.5735032260417938 2.3949991762638101 2.2412964552640915 2.7393576353788376 3.8140474110841751 2.6074602752923965 2.2103162407875043 2.3874671459197989 7.7553604841232291 4.0341712385416022 2.5864809453487396 4.6182694286108017 2.4605823457241058 3.7822222113609341 9.2881499528884905 2.9433117955923072 2.2628042846918106 3.861149936914444 4.1300950050354004 6.4505606144666654 4.2230013161897659 6.8969097137451172 2.8121467530727386 3.2270213216543207 2.5092923045158368 5.3175832331180573 3.7889063805341721 6.7058936059474945 2.2080744951963425 2.6972174793481889 2.6741928607225418 13.590018838644022 2.0085185170173645 2.2975557297468177 2.6929716616868964 4.9100897312164307 3.6544020771980286 2.3972137570381165
leaf_count=235 27 175 22 22 164 943 12 9 26 10 10 14 119 8 13 11 77 11 59 15 62 18 10 16 31 11 10 14 16 14 11 11 47 19 15 20 11 20 55 15 11 18 17 33 19 36 13 15 12 22 16 28 10 11 11 56 12 13 15 28 17 10
internal_value=0 0.0320767 -0.0463233 -0.0369232 -0.0495522 0.0382948 0.0267575 0.0458172 -0.0122185 -0.0431451 -0.0182066 -0.0624315 0.0297072 0.0200604 0.00802443 0.0126216 0.0281634 -0.00587146 0.0243007 -0.010848 -0.0510865 -0.0401753 -0.00830662 -0.0179754 0.00346855 0.00252328 -0.0102053 -0.0572891 -0.0379676 -0.0316951 -0.00392748 0.0169217 0.034798 0.0213703 -0.00890072 -0.0233053 -0.000486643 0.0412065 0.0255612 0.0394865 0.0283483 0.00478347 -0.00918432 0.00948932 0.00055771 0.0329157 -0.0082223 -0.0322194 -0.017337 -0.0324494 -0.0521177 -0.0643849 -0.0273135 -0.0519946 -0.0236964 -0.0625862 0.0186583 0.0514603 0.0358698 0.0141817 0.021633 -0.00137921
internal_weight=0 322.033 219.607 163.804 108.393 297.445 117.395 180.05 55.4104 24.5878 11.3092 84.5313 114.462 62.2446 38.4326 36.6491 21.0309 7.23037 31.9223 7.34126 45.8119 30.9198 15.6182 13.77 8.90997 31.899 21.3675 4.86 8.86749 5.30095 23.8622 11.4947 24.581 16.8256 6.62065 12.3675 7.07885 52.2174 20.6734 23.812 10.5315 6.12395 8.53647 12.5 8.89227 9.10723 5.05344 23.5115 13.4511 10.2241 10.0603 13.2786 4.66927 22.3833 6.09609 16.2872 5.30872 31.5439 16.8912 7.60306 10.105 4.90651
internal_count=2831 1880 951 716 464 1776 657 1119 252 104 49 353 645 339 205 197 115 38 176 36 189 127 82 71 47 151 100 24 39 27 111 58 140 93 34 53 31 306 118 134 51 29 35 61 39 47 23 101 59 44 42 55 20 92 25 67 27 188 98 43 50 22
is_linear=0
shrinkage=0.05


Tree=13
num_leaves=63
num_cat=0
split_feature=30 16 16 30 22 3 31 19 29 1 33 29 24 34 12 2 31 12 33 6 24 34 12 11 25 6 30 25 19 33 2 12 13 3 24 33 29 24 27 23 9 24 19 8 33 12 33 31 35 1 25 24 8 8 6 34 2 11 31 25 9 9
split_gain=294.82 55.6558 21.3437 18.8788 23.5422 10.7952 10.4544 7.68006 6.95093 5.98977 5.32235 4.95615 4.7527 5.38592 4.54985 9.19209 5.18292 5.1409 4.25945 4.16567 4.01116 4.40773 4.12797 3.87193 3.76454 5.73574 3.72361 3.61302 3.59058 3.36702 5.46595 5.31136 3.99492 3.25615 3.23311 6.29984 3.21847 6.00935 4.63977 4.41467 3.20167 5.3553 4.56078 3.06703 2.99407 3.58373 2.93172 2.81645 2.74116 2.63196 2.59093 2.56169 2.48597 2.47693 3.94485 2.62715 2.43032 2.31882 3.77096 3.64658 2.30872 3.50929
threshold=3.5000000000000004 1.0000000180025095e-35 1.0000000180025095e-35 1.5000000000000002 2.5000000000000004 9613.0000000000018 13.196666665 23.500000000000004 15.500000000000002 15.500000000000002 14.700000000000001 5.5000000000000009 5.5000000000000009 2.0000000000000004 122.05000000000001 2.5000000000000004 12.984090910000001 125.15000000000002 13.300000000000002 134.50000000000003 4.5000000000000009 2.0000000000000004 124.55000000000001 5.5000000000000009 12.163333335000003 143.50000000000003 4.5000000000000009 11.651190480000002 25.500000000000004 12.550000000000002 1.5000000000000002 134.35000000000005 1.0000000180025095e-35 9124.5000000000018 3.5000000000000004 9.1500000000000021 8.5000000000000018 5.5000000000000009 3.5000000000000004 13.500000000000002 3.5000000000000004 6.5000000000000009 43.500000000000007 37.500000000000007 10.100000000000003 119.65000000000002 12.550000000000002 13.330952380000001 1.2650000000000003 17.500000000000004 11.651190480000002 1.5000000000000002 32.000000000000007 2.5000000000000004 129.50000000000003 -1.0000000180025095e-35 1.5000000000000002 4.5000000000000009 12.746428570000001 12.484732145000002 37.500000000000007 30.500000000000004
decision_type=2 2 2 2 2 2 2 2 2 2 2 2 2 2 2 2 2 2 2 2 2 2 2 2 2 2 2 2 2 2 2 2 2 2 2 2 2 2 2 2 2 2 2 2 2 2 2 2 2 2 2 2 2 2 2 2 2 2 2 2 2 2
left_child=2 12 -1 4 28 7 8 36 10 34 14 -6 49 47 16 17 43 -16 19 53 21 22 -9 27 25 -19 -8 -22 29 31 32 48 -31 -21 35 -5 -3 38 39 44 41 -29 -42 -7 45 -38 -37 -14 -4 -2 -36 -35 -17 54 -13 -55 -25 58 59 -39 61 -11
right_child=1 5 3 9 11 6 26 20 -10 60 -12 18 13 -15 15 52 -18 24 -20 33 23 -23 -24 56 -26 -27 -28 40 -30 30 -32 -33 -34 51 50 46 37 57 -40 -41 42 -43 -44 -45 -46 -47 -48 -49 -50 -51 -52 -53 -54 55 -56 -57 -58 -59 -60 -61 -62 -63
leaf_value=-0.071499909518290397 -0.03929844224320185 0.053533683942809454 0.029456562801797134 0.048068484023227366 -0.073491405149140196 0.044507424263306838 -0.011532130971810106 -0.038018620373838803 -0.067858235744464132 -0.014480173701910046 0.05553710588588226 0.012841416297698383 -0.016439754601895836 -0.084191904319642311 -0.065850244704433722 -0.037226456109675343 -0.047069629993008823 -0.033388882940308263 -0.071185312316007054 0.036812149533518579 -0.047000101768808672 -0.068539478384070748 0.065919997989040011 0.046766689185045396 0.038454669059427932 0.065882520003342021 0.053391512669927012 -0.07107382196682982 -0.062274583931857787 0.017661751645912712 0.052722743525793273 0.053132672138622661 -0.062192587024575821 0.0063325591142341488 -0.0011892077178104737 -0.085141009546022106 0.063141021959028376 0.043705401885881165 -0.053882494067917501 -0.042026057630664082 0.063529450040129082 0.042850758073049791 -0.025859852750865431 -0.021715730251230077 0.0447697331409522 -0.026084837695224728 -0.0069548747035292451 0.047417910628469152 -0.041948423650413492 -0.084009495313633997 0.051043547846302099 -0.060121756501529039 -0.1115442699395371 -0.015092748948391585 -0.068444866087882292 -0.069150334860487203 -0.012628120876832287 0.057572833845701978 0.055599739167431453 -0.038476656844960516 0.0053043001982032729 -0.048423522444064102
leaf_weight=54.828995451331139 6.5674934834241885 101.13595835864544 2.1995369642972999 2.7478964328765896 37.984832897782326 13.023156002163889 2.4447196424007442 1.728589624166488 2.8731664568185797 18.613581255078316 6.1686527431011191 3.4213761389255586 6.495100796222685 2.3802198618650428 2.1645295172929826 2.3501237183809272 2.1683389544486991 5.9458825737237957 14.661224618554114 2.6877909302711469 2.3563642948865882 2.2557240873575211 2.1352581381797791 23.093257129192356 8.832622364163397 1.9265137016773222 22.856999307870865 2.0742309838533384 2.3592437654733649 2.212695360183714 2.0756673216819763 6.0839563012123108 5.3606591522693634 2.6755348145961761 3.8508851528167707 2.4496743530035019 1.6175159066915608 2.5785674601793271 1.976888358592986 2.1535428166389456 5.5330691188573837 2.0520754754543304 1.9228389263153074 2.0195151120424262 14.90327315032482 3.6986568570137024 2.3482953011989594 2.3519531935453415 3.4557100236415863 6.5984587818384171 6.1911607384681702 3.1664212942123413 2.1589937210083008 2.6997370421886506 2.6475815623998642 13.419148966670031 1.8610899001359928 32.077783480286598 7.4035127311944962 2.8325848132371902 6.0726266503334037 12.886329576373102
leaf_count=235 27 658 10 15 164 73 13 10 13 81 38 14 27 10 11 13 12 30 62 11 11 11 12 141 51 11 147 11 10 10 10 32 24 11 18 10 10 16 8 11 34 12 10 10 89 20 11 12 15 28 34 13 11 11 11 56 11 205 47 16 28 55
internal_value=0 0.0312131 -0.0445293 -0.0354164 -0.047655 0.0373078 0.0209615 0.0429946 0.00762697 -0.0116513 0.0122653 -0.0601662 -0.041326 -0.0174262 0.00568905 -0.00867424 0.0251995 0.00665188 -0.0490121 -0.038429 0.0246259 -0.0130023 0.0194204 0.0305465 0.0160462 -0.00909543 0.0471184 0.00943773 -0.00373569 0.00272149 -0.0191603 0.0207072 -0.0388617 -0.00873232 0.0124305 -0.0122998 0.0478475 0.0395422 0.0195419 0.0260298 0.0209198 -0.0144174 0.0404764 0.0356168 0.0332783 0.00106331 -0.046874 0.000536545 -0.0141764 -0.0617065 0.0310135 -0.0296866 -0.0728103 -0.0498455 -0.0226197 -0.0600963 0.042337 0.0503905 0.0324115 0.000685424 -0.0229241 -0.0283661
internal_weight=0 314.717 217.101 162.272 107.111 290.324 74.9332 215.391 49.6315 55.1604 46.7583 83.3636 24.3932 11.2273 40.5897 23.3787 17.211 18.8695 45.3788 30.7176 45.0125 6.11957 3.86385 38.8929 16.705 7.8724 25.3017 13.9386 23.7475 21.3882 9.64902 11.7392 7.57335 8.52975 17.5879 7.54587 170.378 69.2423 24.3499 22.373 11.5822 4.12631 7.45591 15.0427 20.2194 5.31617 4.79797 8.84705 5.65525 13.166 10.042 5.84196 4.50912 22.1878 6.06896 16.1189 24.9543 44.8924 12.8147 5.41115 37.5725 31.4999
internal_count=2831 1880 951 716 464 1776 433 1343 273 252 260 353 104 49 222 127 95 103 189 127 263 33 22 230 92 41 160 78 111 101 44 57 34 35 88 36 1080 422 138 130 67 23 44 83 119 30 21 39 25 55 52 24 24 92 25 67 152 284 79 32 164 136
is_linear=0
shrinkage=0.05


Tree=14
num_leaves=63
num_cat=0
split_feature=30 16 16 30 22 3 31 19 29 19 29 18 6 18 25 13 3 17 13 31 30 15 31 10 30 19 3 12 12 35 35 19 12 31 25 10 3 12 6 29 24 17 22 23 24 12 8 24 12 6 34 29 35 31 31 9 18 35 11 31 25 17
split_gain=270.94 51.4255 20.0863 17.5365 21.8163 10.3515 9.87307 7.42566 6.2372 5.52485 4.77701 4.61189 5.6062 4.54721 5.0736 6.13708 4.35209 5.39518 4.80261 4.1079 3.87615 3.94302 4.27493 3.76003 3.5522 3.46399 3.73619 4.13997 4.09141 4.31074 3.40732 3.24986 3.20486 5.85655 4.13008 5.74759 4.49687 3.26681 3.80727 3.16163 5.78577 5.74016 6.39405 3.12244 2.94916 5.05403 3.08765 6.71946 2.68675 4.86225 2.68474 2.64075 4.00421 4.84511 4.77716 2.90621 2.5548 2.48688 2.27903 3.59253 3.31036 2.2784
threshold=3.5000000000000004 1.0000000180025095e-35 1.0000000180025095e-35 1.5000000000000002 2.5000000000000004 9613.0000000000018 13.196666665 23.500000000000004 15.500000000000002 21.500000000000004 5.5000000000000009 1.0000000180025095e-35 137.50000000000003 1.0000000180025095e-35 11.585714285000002 1.0000000180025095e-35 9613.0000000000018 1.0000000180025095e-35 1.0000000180025095e-35 12.984090910000001 6.5000000000000009 1.0000000180025095e-35 12.283482145000002 4.5000000000000009 4.5000000000000009 34.500000000000007 9246.0000000000018 119.95000000000002 124.05000000000001 1.2650000000000003 -3.5899999999999994 25.500000000000004 122.05000000000001 12.984090910000001 12.163333335000003 8.5000000000000018 9922.0000000000018 130.05000000000004 129.50000000000003 8.5000000000000018 5.5000000000000009 1.0000000180025095e-35 6.5000000000000009 9.5000000000000018 4.5000000000000009 120.75000000000001 7.5000000000000009 6.5000000000000009 132.85000000000005 158.50000000000003 1.0000000000000002 14.500000000000002 -3.5899999999999994 11.392307690000001 10.535714285000003 36.500000000000007 1.0000000180025095e-35 -2.4099999999999997 4.5000000000000009 12.746428570000001 12.484732145000002 1.0000000180025095e-35
decision_type=2 2 2 2 2 2 2 2 2 2 2 2 2 2 2 2 2 2 2 2 2 2 2 2 2 2 2 2 2 2 2 2 2 2 2 2 2 2 2 2 2 2 2 2 2 2 2 2 2 2 2 2 2 2 2 2 2 2 2 2 2 2
left_child=2 11 -1 4 31 7 8 39 20 16 -6 12 -2 14 15 23 17 56 50 -14 21 30 -23 -9 -8 26 27 -12 -29 -30 -7 48 33 -32 35 -34 -37 38 -36 -3 41 57 43 -43 45 -16 47 -46 61 -50 -19 52 -11 54 -54 -56 -5 -41 59 60 -42 -4
right_child=1 5 3 9 10 6 24 13 -10 51 25 -13 19 -15 44 -17 -18 18 -20 -21 -22 22 -24 -25 -26 -27 -28 28 29 -31 32 -33 34 -35 37 36 -38 -39 -40 40 58 42 -44 -45 46 -47 -48 -49 49 -51 -52 -53 53 -55 55 -57 -58 -59 -60 -61 -62 -63
leaf_value=-0.069293960583493366 -0.065634701140287452 0.052631827923302503 -0.048940565916017781 0.043536086058709678 -0.071343858879115429 0.062674132068756938 -0.010898366819410159 -0.04032353773371293 -0.063740678511660126 0.03849142578843235 -0.055899321264162298 0.018203236340989384 -0.058779629235286436 0.061732197744131703 -0.07245173439158413 -0.097871274179927192 -0.03779562190138086 -0.0095087784227904284 -0.035752241342533173 0.020616940829847021 0.065950207424119375 -0.082316986288645685 0.017790710569836703 0.051460073378415329 0.052470629559319373 -0.080041086610407153 -0.059842469620152529 0.03407858536929672 -0.055159166527563801 0.010411074471552102 0.039332443352913637 -0.059297776303169063 -0.071043444083114068 -0.051539669560766645 0.041720581213974123 -0.033630021049105584 0.063235123630310461 0.040381608214745533 -0.043289045515164493 -0.0042116418802814965 0.042641937873597796 0.048524497575306302 -0.072864188535691529 -0.0232141357536048 -0.048492788644314194 0.04460173443707674 0.040801715295520756 0.05000724142540959 0.036371244081062175 -0.033103202060967264 0.069356425844930805 -0.078633920250987088 -0.063071576933225237 -0.054729646615651863 -0.0096474393271043964 0.060141913985510213 -0.010293247600777863 0.047853167057185404 0.056722535198125618 0.054700319359309468 -0.035849205540909056 0.0031069148874285639
